<?xml version="1.0"?>
<opencv_storage>
<opencv_ml_svm>
  <format>3</format>
  <svmType>C_SVC</svmType>
  <kernel>
    <type>LINEAR</type></kernel>
  <C>1.0000000000000001e-01</C>
  <term_criteria><epsilon>2.2204460492503131e-16</epsilon>
    <iterations>1000</iterations></term_criteria>
  <var_count>2268</var_count>
  <class_count>2</class_count>
  <class_labels type_id="opencv-matrix">
    <rows>2</rows>
    <cols>1</cols>
    <dt>i</dt>
    <data>
      0 1</data></class_labels>
  <sv_total>1</sv_total>
  <support_vectors>
    <_>
      -1.74020946e-01 -2.03501150e-01 9.88541469e-02 9.65259671e-02
      -4.14190590e-02 -4.57169339e-02 1.18688539e-01 5.49187586e-02
      -5.64643219e-02 -6.37604073e-02 -9.83961374e-02 1.11409649e-01
      -7.23218173e-02 1.24266744e-01 -4.25865166e-02 6.27692714e-02
      -1.28569201e-01 -6.85162842e-02 4.02290076e-02 -5.14374785e-02
      6.49990812e-02 -4.80183251e-02 5.82040474e-02 1.70993302e-02
      8.88972059e-02 5.02335541e-02 6.54022023e-02 -6.37501329e-02
      -1.09488748e-01 -2.58025914e-01 3.92620414e-02 -1.17754946e-02
      2.64386963e-02 1.18717901e-01 3.44977736e-01 4.10212576e-02
      -1.11488022e-01 -9.05964226e-02 -2.82105561e-02 4.85068001e-02
      -1.48244023e-01 1.02541810e-02 -4.50491831e-02 9.48225334e-02
      1.42745271e-01 -1.68885306e-01 -1.21549465e-01 3.70981097e-02
      -1.00739589e-02 1.13896675e-01 -8.01894348e-03 1.42605320e-01
      8.27230420e-03 1.64681859e-02 4.10442762e-02 -1.87337056e-01
      -1.77562356e-01 -7.83681229e-04 -1.39515847e-01 -3.06293275e-02
      1.74712203e-03 1.54411241e-01 1.08197063e-01 -8.47569704e-02
      -7.04380423e-02 -7.40375891e-02 1.05139919e-01 -2.59529632e-02
      -5.62463589e-02 -1.14837639e-01 -3.34193837e-03 -1.79730412e-02
      6.80794753e-03 -2.03665495e-02 3.56569402e-02 1.91272274e-01
      9.70037207e-02 4.04242091e-02 5.35905361e-02 8.50214362e-02
      -1.07570864e-01 -4.20762524e-02 6.67715818e-02 1.29191011e-01
      -8.82415399e-02 -5.01900986e-02 -3.37559544e-02 -3.49485269e-03
      -1.71925768e-01 -2.04250246e-01 1.58655927e-01 1.80529561e-02
      1.69026911e-01 -3.79603468e-02 1.91919371e-01 1.67935970e-04
      4.04617600e-02 7.09067732e-02 1.66503955e-02 5.93570760e-03
      5.41270599e-02 4.35189605e-02 8.37494358e-02 2.03150690e-01
      1.00932464e-01 1.58086587e-02 -4.65724654e-02 6.99768886e-02
      -5.55580370e-02 -3.31114344e-02 -6.62813261e-02 -4.65825684e-02
      5.98175160e-04 5.91644384e-02 9.52933580e-02 5.83650125e-03
      1.21772382e-02 1.61383361e-01 -1.17073238e-01 8.41827914e-02
      -2.25570761e-02 -1.00790963e-01 -1.05436124e-01 8.38747993e-02
      6.60671741e-02 9.99976546e-02 -1.82871938e-01 -9.32915956e-02
      3.93186882e-03 2.15820104e-01 6.66292757e-02 6.16162382e-02
      3.50262038e-02 -2.68486403e-02 -2.02862948e-01 -1.21409163e-01
      -1.99605543e-02 -1.38720751e-01 -1.62207291e-01 -3.32413614e-02
      9.43756327e-02 9.34567600e-02 2.01282367e-01 -7.17762560e-02
      -2.26151925e-02 8.83167163e-02 -1.38651326e-01 7.74845900e-03
      1.28729157e-02 -7.31192902e-02 -7.36317337e-02 -9.19051692e-02
      1.16969295e-01 -1.01004712e-01 2.23963074e-02 -6.08955286e-02
      8.06543380e-02 1.50115835e-02 -2.68199220e-02 1.75160822e-02
      -3.62953991e-02 -2.56314073e-02 -1.98038109e-02 -1.52268335e-02
      -5.64396009e-02 -5.00365086e-02 7.27316067e-02 6.21693470e-02
      3.49411787e-03 -5.34283519e-02 -4.42736112e-02 -4.13707495e-02
      -7.85417557e-02 1.22678071e-01 -1.45796776e-01 -2.95992531e-02
      -1.19064562e-01 -1.39656097e-01 -2.32035965e-01 9.92465988e-02
      8.78294781e-02 -6.32858425e-02 4.04813103e-02 -1.83629636e-02
      1.77659411e-02 -7.59637356e-02 3.88387702e-02 -4.51836437e-02
      -6.65767044e-02 -1.80034712e-01 -7.25779235e-02 -8.85594115e-02
      9.11829807e-03 -4.78677899e-02 -3.60076092e-02 3.48065831e-02
      -6.24087974e-02 -1.44778922e-01 8.77509788e-02 -2.17797279e-01
      -7.69245550e-02 8.50820094e-02 4.15906124e-02 -1.14738330e-01
      -9.26516391e-03 8.39561820e-02 -1.48484066e-01 -3.35158110e-02
      -2.84196660e-02 1.80521682e-02 1.18780099e-01 2.05971941e-01
      4.97437967e-03 9.45760682e-03 3.57389078e-02 -1.58123866e-01
      1.11504886e-02 7.00145029e-03 1.12728318e-02 -4.27323543e-02
      -1.14874922e-01 1.12644490e-02 1.38337761e-01 -2.63227243e-02
      8.43029097e-02 -3.07543818e-02 -2.96153016e-02 -4.45063561e-02
      -3.85088213e-02 -1.62540823e-01 -5.45626432e-02 -4.33359817e-02
      -1.31887225e-02 9.88544524e-02 -1.87365502e-01 -2.03481093e-02
      2.17418652e-02 5.62323108e-02 5.00224568e-02 -7.49718249e-02
      -5.55020794e-02 2.03489442e-03 -2.74988599e-02 1.35780782e-01
      4.23194235e-03 5.75906709e-02 -4.75301594e-02 5.02659827e-02
      -1.37886956e-01 2.94450345e-03 -4.30145711e-02 -2.81197298e-02
      -7.00890133e-03 -8.47256780e-02 -1.09185353e-01 -2.06264885e-04
      1.24291696e-01 -2.18002826e-01 1.71457008e-01 8.74655396e-02
      -1.68499365e-01 2.27468416e-01 -1.04991548e-01 6.49260208e-02
      6.28117993e-02 1.17226370e-01 9.48120952e-02 1.08575821e-01
      -2.39030078e-01 -2.28807837e-01 6.51607439e-02 -7.43128778e-03
      6.52515292e-02 -2.76274905e-02 1.17401399e-01 5.95822744e-02
      -4.35225926e-02 -3.27261165e-02 6.03263974e-02 -3.20929028e-02
      -6.42725900e-02 -1.37242982e-02 -8.60380977e-02 -1.22437000e-01
      1.00060347e-02 3.36706266e-02 -1.69048771e-01 4.90682051e-02
      8.66570622e-02 -2.49272175e-02 -9.73706022e-02 -1.07314140e-01
      -9.55266953e-02 -3.57779451e-02 2.08207965e-02 -2.38586497e-02
      -3.66130248e-02 1.35071417e-02 2.91937813e-02 1.31251337e-02
      -7.02519119e-02 -2.91194711e-02 1.31951207e-02 -1.19111851e-01
      -2.01463446e-01 -1.91590711e-02 2.91337632e-02 -1.28331944e-01
      1.58035476e-02 -1.63241923e-01 -1.48369834e-01 -7.22463280e-02
      -3.09522785e-02 1.56313121e-01 4.21227589e-02 -2.93339230e-02
      -2.10077539e-01 -8.67815018e-02 -1.16656549e-01 -1.44511387e-01
      5.82200214e-02 6.75768256e-02 -1.67359915e-02 1.32085651e-01
      -3.27687040e-02 8.14379007e-02 -6.17406964e-02 1.46132171e-01
      -9.43728685e-02 -3.36492471e-02 -2.49771550e-02 2.44711950e-01
      1.38616550e-03 1.14901252e-02 -5.61812986e-03 7.57554099e-02
      -2.63525033e-03 -5.55657111e-02 8.11686367e-02 -9.79302302e-02
      1.05326660e-01 3.92295495e-02 -1.86648518e-02 -1.01489767e-01
      -1.64398681e-02 -3.71332318e-02 6.10071048e-02 2.63689458e-02
      1.08018525e-01 4.12469208e-02 -5.27302222e-03 -4.68760431e-02
      -5.23491800e-02 -1.94166675e-02 4.75574471e-02 -2.88400427e-02
      -1.96005106e-02 -5.32539859e-02 5.24245836e-02 2.84264907e-02
      1.12249488e-02 5.27037419e-02 2.98302271e-03 1.87643294e-04
      -1.00505114e-01 -4.09083851e-02 -1.31142274e-01 -1.69872828e-02
      -2.93465098e-03 7.33400360e-02 -1.30553603e-01 -2.75267754e-02
      1.22408286e-01 6.33998960e-02 -2.55753868e-03 -1.34730618e-02
      -7.77207389e-02 -3.58907599e-03 5.37864529e-02 -2.18299136e-01
      -2.21247151e-02 -1.36728227e-01 -2.44259775e-01 -3.27199511e-02
      -6.83504641e-02 2.44576987e-02 1.35167852e-01 2.87454464e-02
      3.37079307e-03 -2.14938261e-02 6.20166622e-02 -1.37007952e-01
      1.33512216e-02 5.08116223e-02 6.61516115e-02 -5.59581220e-02
      3.83806750e-02 6.96445927e-02 -1.29368231e-01 1.75368547e-01
      1.49523199e-01 9.59812775e-02 3.35136130e-02 -6.58199862e-02
      -1.38887754e-02 -8.81848857e-04 -1.32053001e-02 -1.31195590e-01
      -1.09786451e-01 5.48210517e-02 3.14447917e-02 3.34965736e-02
      -7.45533556e-02 -8.88722986e-02 9.24214870e-02 2.44094767e-02
      1.20382749e-01 6.06451780e-02 1.97171737e-02 -3.36749591e-02
      1.42623499e-01 2.53529544e-03 6.65920749e-02 -8.77224281e-02
      -2.79925950e-02 1.85399223e-02 1.22137509e-01 3.34714875e-02
      2.96848454e-02 2.48364583e-02 -1.68185964e-01 -1.02455117e-01
      -3.82081307e-02 -6.02383493e-03 -9.73064527e-02 -1.80257589e-01
      -1.06284633e-01 2.60697417e-02 4.65837792e-02 1.34596810e-01
      -2.17516981e-02 -1.35199437e-02 1.01781882e-01 -2.42205076e-02
      -3.77620980e-02 2.25089062e-02 -4.88151088e-02 2.40253042e-02
      1.20168284e-01 -1.56589299e-02 -5.67098334e-02 -1.53586805e-01
      -3.25003862e-02 6.64782897e-02 5.57956211e-02 -5.00891954e-02
      4.44270819e-02 -3.07247583e-02 1.03210853e-02 -7.48654678e-02
      -8.62611011e-02 -1.54405788e-01 -1.73039004e-01 -5.05803712e-02
      -5.68370800e-03 7.80129358e-02 1.37595862e-01 1.18787989e-01
      2.07928359e-03 -9.10117403e-02 -1.55872226e-01 -1.59355476e-02
      5.53943664e-02 -5.28019369e-02 -1.88903641e-02 -6.87093735e-02
      -5.85435443e-02 -3.57375704e-02 -1.28231078e-01 3.48642133e-02
      1.41554162e-01 1.22910000e-01 2.58657224e-02 6.63111359e-02
      1.09313071e-01 -1.45863160e-01 -4.15242873e-02 -1.40102953e-01
      -9.14772749e-02 2.48106830e-02 -1.29271448e-01 -2.21959092e-02
      3.57971154e-02 -4.89333048e-02 -5.96058182e-02 -2.77763344e-02
      -8.23396742e-02 5.55350557e-02 1.21664517e-01 1.22876145e-01
      2.52471659e-02 -1.87187213e-02 -1.11028440e-02 1.03351660e-01
      2.99015827e-02 6.97606150e-03 9.21982452e-02 5.81153035e-02
      7.64951333e-02 2.37990078e-02 5.69299720e-02 8.01657513e-02
      7.69617707e-02 -9.07936692e-03 -5.90000264e-02 3.54491174e-02
      -4.26666848e-02 -4.72964756e-02 1.86989475e-02 1.19384915e-01
      5.22578508e-02 -2.38711666e-03 -1.78782269e-02 1.01183824e-01
      -4.78381440e-02 -1.40785044e-02 -1.42917722e-01 -1.46905765e-01
      1.57945435e-02 -3.25159803e-02 8.46293475e-03 -1.16392188e-01
      -1.15755424e-01 2.57801311e-03 5.24283275e-02 9.40852314e-02
      -4.08397391e-02 -2.04677079e-02 -2.31217872e-02 -5.57549298e-02
      -9.58775282e-02 4.36870568e-02 6.62252456e-02 -1.47882393e-02
      -3.18069966e-03 3.19834724e-02 2.64226291e-02 -8.17522779e-02
      -4.52476963e-02 -7.17938766e-02 -1.15088880e-01 -2.57676758e-04
      2.93879081e-02 -8.59263837e-02 -1.15809411e-01 2.04058038e-03
      6.64808303e-02 -5.62096536e-02 -4.46738750e-02 -1.39425635e-01
      -1.60619076e-02 1.13920301e-01 6.34663031e-02 -1.09742973e-02
      -3.35647464e-02 -1.17241025e-01 5.77149987e-02 1.17778815e-01
      -8.62949807e-03 1.35027170e-01 8.23165327e-02 1.39925927e-01
      8.36217925e-02 -4.81895870e-03 1.02010757e-01 9.65756178e-02
      8.66024569e-02 1.22092061e-01 5.24683557e-02 -9.07969475e-03
      -8.16965774e-02 -6.72913566e-02 5.24167269e-02 -2.02890672e-02
      4.37498838e-03 2.73693260e-02 3.17441374e-02 1.27861602e-02
      5.83720095e-02 1.87995210e-02 1.37516662e-01 1.03793398e-01
      6.11950271e-02 1.23892613e-02 -8.12300369e-02 7.19700707e-04
      -2.46324949e-02 -4.70085442e-02 2.56004743e-02 3.37883756e-02
      -4.85049598e-02 -6.04416355e-02 2.22482476e-02 -8.83701742e-02
      3.53393443e-02 1.94589481e-01 4.35979739e-02 -1.60273075e-01
      -3.00230961e-02 -2.32665222e-02 -3.00282682e-03 -1.70486957e-01
      -3.35099660e-02 -1.82422027e-02 1.56058162e-01 2.08198540e-02
      5.94756342e-02 1.32104427e-01 3.96346441e-03 -1.55806899e-01
      -9.24596265e-02 -8.96482915e-02 1.63134243e-02 -8.63985792e-02
      -1.81220938e-03 -4.52738889e-02 -3.28448438e-03 1.43434098e-02
      -1.30468264e-01 8.18039253e-02 -4.83354591e-02 4.33255872e-03
      1.38051377e-03 -4.01082635e-03 -3.33557352e-02 6.31093094e-03
      -1.82863787e-01 2.20885556e-02 -5.95496036e-02 1.01222955e-01
      1.16926234e-03 1.20332219e-01 3.66538279e-02 1.37697771e-01
      1.65067078e-03 -9.93683413e-02 -1.01855822e-01 7.03146085e-02
      1.82058647e-01 1.75393716e-01 1.63529247e-01 6.45634234e-02
      -8.01960099e-03 3.50864157e-02 3.70276719e-03 3.57977599e-02
      1.39845014e-01 1.14847310e-01 -9.41822957e-03 3.46105807e-02
      6.17301203e-02 3.74500602e-02 8.55021924e-03 -4.87832278e-02
      -3.73570099e-02 7.62995109e-02 -8.20693895e-02 1.79286320e-02
      1.23034924e-01 1.24005660e-01 2.17242744e-02 5.70480302e-02
      8.51917174e-03 4.47836630e-02 -2.58787181e-02 -2.50392593e-02
      -1.72361165e-01 3.45393158e-02 -3.94926108e-02 -5.69957541e-03
      6.67410567e-02 -7.36864358e-02 -4.10806835e-02 8.68062675e-02
      2.89408937e-02 8.68221000e-02 8.25431645e-02 3.36106531e-02
      -8.43157470e-02 -5.43759018e-02 2.84265745e-02 5.89116151e-03
      -1.54895037e-01 8.85159224e-02 1.59457698e-01 -2.98285373e-02
      1.52476370e-01 1.18805565e-01 1.70190185e-02 -5.33011295e-02
      -1.93425007e-02 8.66012201e-02 7.83520192e-02 -6.75382018e-02
      2.12159706e-03 8.60133395e-02 -1.34092242e-01 9.05651823e-02
      8.53496138e-03 4.35017571e-02 8.92022625e-02 5.18008433e-02
      7.21076652e-02 6.95377737e-02 7.10611269e-02 -1.01886690e-01
      5.49293421e-02 1.15156025e-02 -2.49176584e-02 2.74115033e-03
      6.54235706e-02 -4.71424405e-03 -5.33394814e-02 2.94087529e-02
      7.93501511e-02 -2.68439502e-02 -6.06012270e-02 1.05952239e-02
      8.83692726e-02 -6.50338754e-02 1.58623040e-01 9.65889245e-02
      -6.26377761e-02 -4.57854569e-02 -1.23864478e-02 -1.51295289e-02
      1.42598674e-02 -1.83156595e-01 3.09899859e-02 7.25243911e-02
      -1.55013297e-02 2.71303598e-02 1.61667749e-01 -1.10457810e-02
      1.26886917e-02 4.19744030e-02 -5.70640117e-02 -1.55539110e-01
      -1.22042887e-01 1.61241554e-02 2.20812596e-02 -1.31464135e-02
      -2.79484154e-03 1.29599735e-01 8.51245411e-03 -3.24560180e-02
      -1.57392398e-01 5.63299609e-03 -1.55667822e-05 -3.00415675e-03
      2.45287400e-02 -1.93726812e-02 2.77726520e-02 3.41303460e-02
      -8.11324790e-02 -7.92780593e-02 3.94538715e-02 -7.02197775e-02
      -8.90996307e-02 -3.94148976e-02 -5.40778078e-02 -6.47411197e-02
      -4.73772809e-02 -3.21065518e-03 -1.22706471e-02 -1.30646706e-01
      4.34973277e-02 1.27167389e-01 1.26955688e-01 3.97461392e-02
      4.36262712e-02 2.51057893e-02 -1.10258728e-01 -5.79703227e-02
      -4.68045026e-02 -5.37705235e-02 -7.24660084e-02 -3.58598977e-02
      -8.53604346e-04 6.95142546e-04 4.83560283e-03 1.94118693e-02
      4.98599969e-02 2.02094503e-02 -9.77726281e-02 7.67580718e-02
      -1.22770876e-01 -4.37849909e-02 2.03133225e-02 6.39835652e-03
      1.52900741e-01 -5.33062331e-02 -1.74360335e-01 -3.42509113e-02
      2.14541361e-01 1.19266674e-01 -3.71542876e-03 -1.00787371e-01
      -2.04022564e-02 -1.45989992e-02 8.49008327e-04 -5.60200848e-02
      9.40929726e-02 3.29551399e-02 5.26339421e-03 4.49967682e-02
      1.02228902e-01 -1.56764202e-02 -7.76021034e-02 1.77259028e-01
      6.56417161e-02 6.38239738e-03 -4.26495448e-02 -1.49063868e-02
      7.78147355e-02 2.95535356e-01 -1.19312182e-02 1.26553774e-01
      -1.18330978e-01 -8.67739916e-02 -6.36443123e-02 -1.98793188e-02
      5.93365654e-02 4.45994511e-02 1.01833515e-01 -3.86828510e-03
      -1.55547351e-01 1.58061124e-02 5.79133146e-02 6.24691658e-02
      2.86220238e-02 1.08476423e-01 5.73772490e-02 7.97391981e-02
      -2.61964444e-02 -2.25123093e-01 9.81448498e-03 5.72765991e-02
      1.67575087e-02 2.23545451e-02 -4.13165130e-02 6.06630184e-02
      1.32051602e-01 4.01371010e-02 1.80657022e-02 -7.51758292e-02
      -8.04181620e-02 -1.13330081e-01 3.23709920e-02 7.78028741e-02
      6.37217090e-02 7.74184689e-02 -1.41604543e-01 -7.31691569e-02
      -2.20677510e-01 -4.76729311e-02 -4.00840715e-02 1.96803492e-02
      7.79074384e-03 4.53446507e-02 6.28936142e-02 7.08069056e-02
      -1.34574026e-01 -2.37044618e-02 -2.02977564e-02 4.51911613e-02
      -2.00278871e-02 -3.75388153e-02 2.57935841e-02 4.02975827e-02
      -3.10264304e-02 -4.68382388e-02 1.30192116e-01 2.05962211e-02
      -2.93285679e-02 8.10020268e-02 1.25151247e-01 1.11408636e-01
      1.90069750e-01 2.47426843e-03 -6.15013652e-02 6.33251965e-02
      -5.49668819e-03 -2.26048171e-03 -4.81379218e-02 -7.07024708e-02
      2.16846447e-02 3.93835269e-02 -3.58185135e-02 5.89752980e-02
      4.90872131e-04 1.12112120e-01 2.36775383e-01 -6.37954399e-02
      -1.27861455e-01 2.49305591e-02 4.75997180e-02 -4.91178632e-02
      -5.32487929e-02 -9.44830924e-02 -3.00649516e-02 5.87425791e-02
      6.95076259e-03 4.42190766e-02 1.72175273e-01 1.49412498e-01
      -1.29003257e-01 -1.28991738e-01 -5.28244749e-02 1.61241777e-02
      -1.02503121e-01 -3.97409201e-02 -3.56280655e-02 1.18952375e-02
      5.25855757e-02 -6.01298027e-02 4.96765925e-03 -4.86949347e-02
      -1.27512682e-03 1.64669845e-02 7.75444508e-02 5.08931838e-02
      4.77316305e-02 -1.65722296e-01 -4.54253182e-02 -2.64634136e-02
      -4.50858846e-02 -3.49350907e-02 -3.37123610e-02 -1.58380251e-02
      2.63664946e-02 -4.61197272e-03 -1.21793300e-01 -8.43442529e-02
      -2.28415821e-02 -3.01404460e-03 -3.25922883e-04 -2.72193039e-03
      -5.10961227e-02 -2.32774974e-03 7.94370621e-02 6.14212677e-02
      -1.20142726e-02 7.15071410e-02 4.28293943e-02 -1.39722857e-03
      -3.28292027e-02 9.39294249e-02 -8.36877897e-02 -5.41228242e-02
      -1.65866669e-02 8.02071169e-02 6.10631332e-02 1.92283262e-02
      -3.22729871e-02 -4.03600000e-02 1.09405003e-01 1.00924216e-01
      7.34273940e-02 -7.61333406e-02 -1.69684455e-01 5.63225262e-02
      1.28796324e-01 -8.54856893e-02 -6.23065010e-02 -9.23002809e-02
      -8.81297886e-03 1.95930362e-01 -1.27521092e-02 -8.60283226e-02
      8.69158506e-02 1.14316493e-01 -6.52146488e-02 -1.97388660e-02
      -8.15234929e-02 6.08178861e-02 9.15626213e-02 4.78132516e-02
      7.17815906e-02 -7.94204231e-03 8.06174893e-03 -4.08209637e-02
      -1.04308113e-01 9.14715156e-02 1.08959094e-01 6.94703758e-02
      8.48976523e-02 6.52107075e-02 1.08075328e-01 6.81008175e-02
      -9.47467983e-03 -8.16026926e-02 2.46357955e-02 -1.08624259e-02
      1.99632570e-01 -1.06385678e-01 -6.34320974e-02 5.89672066e-02
      -1.88245270e-02 9.26301926e-02 3.32684591e-02 6.22747913e-02
      -2.81152502e-02 1.97320394e-02 1.19684182e-01 2.36784723e-02
      2.38823146e-02 -5.06432466e-02 -3.15402634e-02 -7.55461156e-02
      7.32042128e-03 8.19003657e-02 -2.96397787e-02 -3.31883021e-02
      -8.36416800e-03 3.01867407e-02 1.10479400e-01 2.84041069e-03
      2.00863883e-01 1.43048540e-01 -1.80095695e-02 1.37941375e-01
      7.46795684e-02 1.40250893e-02 -8.08653608e-02 8.60520229e-02
      8.78216997e-02 8.17737579e-02 -1.41768586e-02 -4.28684196e-03
      1.08370557e-02 -2.96548456e-02 3.61838005e-02 1.16625562e-01
      5.79315387e-02 -2.62920484e-02 6.12810552e-02 6.60343766e-02
      5.40401973e-02 -5.81064820e-02 -2.63168607e-02 1.51948646e-01
      1.14873974e-02 -1.25513405e-01 -1.09107554e-01 2.00952794e-02
      -9.55458172e-03 3.81262265e-02 3.97183858e-02 5.06886616e-02
      -3.61946784e-02 4.78917882e-02 2.60750055e-02 4.30547111e-02
      -1.28770471e-02 -3.03123649e-02 5.82597218e-02 -5.50559610e-02
      4.33706231e-02 -1.06472403e-01 8.24182779e-02 -6.62278756e-02
      -7.63571411e-02 -3.49683613e-02 6.14403486e-02 6.93921298e-02
      8.02761968e-03 5.87519631e-03 3.25254649e-02 -2.69995630e-02
      -9.60690454e-02 -9.36078355e-02 -6.80596828e-02 -5.03381938e-02
      7.20007420e-02 1.51075721e-02 9.75952856e-03 -3.36870141e-02
      -7.29497299e-02 2.92032119e-02 -2.76794955e-02 -1.36653468e-01
      -8.10096115e-02 -1.53090999e-01 -1.45937458e-01 8.68600160e-02
      5.83358388e-03 7.81014934e-02 8.49751681e-02 -6.59460425e-02
      -4.24317792e-02 1.49474949e-01 9.36157927e-02 -7.11016804e-02
      -1.12499751e-01 -1.03188857e-01 6.62591532e-02 -1.71817094e-01
      -1.47116855e-01 -1.71489008e-02 -7.45250657e-02 2.19044033e-02
      1.67874228e-02 -3.89099009e-02 2.16277555e-01 -4.32359800e-02
      -5.99601008e-02 1.23084866e-01 5.40376082e-03 -3.65206786e-02
      1.32131316e-02 -1.01546133e-02 -8.77383277e-02 5.62628061e-02
      -9.43943113e-02 3.41720395e-02 8.21870118e-02 -1.03462143e-02
      1.34247661e-01 3.30929384e-02 -5.69769405e-02 -3.40005686e-03
      -1.34074297e-02 -9.82497409e-02 -1.01893179e-01 4.47582267e-02
      2.58730780e-02 1.29801799e-02 7.29627386e-02 4.85705361e-02
      4.71491292e-02 -1.93613507e-02 -5.78422360e-02 -4.69696335e-02
      -5.77511713e-02 -9.07833278e-02 -2.15819273e-02 -1.03803955e-01
      -4.36569490e-02 1.37424573e-01 -4.72546034e-02 1.37605608e-01
      -7.02439845e-02 5.70092462e-02 -9.80657116e-02 -2.95445900e-02
      2.55529080e-02 5.15398011e-02 1.01406805e-01 -4.94030528e-02
      -1.46872431e-01 -4.02318463e-02 6.19816594e-02 1.20050088e-03
      2.09785998e-02 3.93739641e-02 -1.89669915e-02 -4.55394760e-02
      1.64259356e-02 -3.34853455e-02 -1.75060593e-02 1.27626270e-01
      8.42305124e-02 -1.39148250e-01 3.61998044e-02 -5.41896336e-02
      -5.68145625e-02 7.55377710e-02 4.83529903e-02 5.06917201e-02
      3.45446053e-03 5.15909214e-03 1.39837479e-03 1.05093367e-01
      7.34757259e-02 1.74666941e-01 -1.68967664e-01 -3.74452658e-02
      -7.10715801e-02 3.81573662e-02 -4.30073440e-02 4.75196950e-02
      4.16746661e-02 5.04566915e-02 8.89820978e-02 5.23279421e-02
      1.44020282e-03 -6.12164102e-02 4.68707494e-02 -1.81397761e-03
      3.56789604e-02 -1.36000337e-02 -7.08862022e-02 -2.30846684e-02
      1.74000025e-01 1.03042044e-01 -7.64952451e-02 3.93748172e-02
      -3.07568442e-02 7.84880519e-02 9.71308947e-02 2.79778074e-02
      -1.48299811e-02 -6.87468573e-02 -1.42437667e-01 2.51259626e-04
      -3.84832285e-02 -3.99708077e-02 9.01063532e-03 -4.79038581e-02
      -7.06855301e-03 1.25463217e-01 -4.72154096e-03 -2.41954233e-02
      1.31700322e-01 2.59200335e-02 -9.58993584e-02 2.27761939e-02
      1.09148704e-01 -8.20657983e-02 -7.80317858e-02 1.04746044e-01
      1.77257150e-01 -1.75452232e-01 -1.36170253e-01 -1.19871996e-01
      -7.36440420e-02 -3.48608159e-02 4.45287265e-02 -4.16491292e-02
      1.32973924e-01 -5.14511727e-02 -4.79803830e-02 -2.23571658e-02
      -5.77028887e-03 -5.76333925e-02 5.97276948e-02 2.09847521e-02
      7.07532242e-02 1.89049710e-02 6.28796816e-02 -2.74740774e-02
      -4.53162864e-02 -5.25598507e-03 7.37822801e-02 -6.34236708e-02
      2.73294747e-02 9.89080518e-02 5.21677248e-02 -5.04860803e-02
      5.52293137e-02 -8.46922025e-02 -8.95045772e-02 -1.17188673e-02
      -2.05440372e-01 1.50772721e-01 -1.28324077e-01 -1.78204760e-01
      1.07665129e-01 -4.89167385e-02 8.18012208e-02 4.36407402e-02
      7.90760890e-02 8.63941237e-02 -9.29428078e-03 -1.44046977e-01
      4.14319448e-02 4.20742780e-02 -1.26177697e-02 9.12930369e-02
      5.57756051e-02 1.16390347e-01 1.17457055e-01 -6.29739761e-02
      -4.32574227e-02 1.49357662e-01 -9.27210972e-02 -1.30665213e-01
      9.16782469e-02 6.82491809e-02 9.23746079e-02 -1.93237066e-02
      4.75655906e-02 -1.16815604e-01 -3.58920097e-02 8.50634184e-03
      1.89822346e-01 -1.38623431e-01 -1.41041189e-01 4.50106375e-02
      -9.89986658e-02 2.16896925e-02 -3.65348831e-02 -9.11510512e-02
      4.41364720e-02 -9.94744748e-02 -9.71959978e-02 -1.69989347e-01
      1.05518602e-01 -6.57955259e-02 -7.32147042e-03 7.60096833e-02
      2.81793382e-02 9.88129899e-02 -1.93731964e-01 -9.78299826e-02
      -1.02633022e-01 -1.65794790e-02 -4.55535278e-02 -4.98770662e-02
      -6.87051192e-02 -2.29908596e-03 -1.48027837e-02 1.73260778e-01
      -1.22938469e-01 -6.41131997e-02 7.01236427e-02 -5.37910089e-02
      3.69213931e-02 -7.51537159e-02 -1.24357961e-01 -1.30561277e-01
      -1.32674258e-02 5.33975139e-02 -6.11793138e-02 -6.77386448e-02
      -1.07614487e-01 -1.00880712e-01 -3.61091122e-02 -9.60523263e-02
      -2.62774341e-02 -3.03116016e-04 -9.93961748e-03 2.09012367e-02
      8.73118080e-03 2.59658117e-02 -3.49564329e-02 -5.75114787e-03
      1.73949962e-03 -1.18161272e-02 1.92224644e-02 1.92245021e-01
      1.27000853e-01 2.17060391e-02 1.31923154e-01 1.46063089e-01
      2.88706683e-02 -2.14077607e-02 -1.85151454e-02 3.29365805e-02
      7.70732835e-02 9.64337364e-02 7.18270019e-02 7.76275760e-03
      -8.25735778e-02 -6.37918711e-02 2.65495982e-02 2.62141004e-02
      2.98144408e-02 -7.94781446e-02 1.11640900e-01 4.96568531e-02
      -9.65462811e-03 3.93126756e-02 -2.25718245e-02 -9.70068574e-03
      -1.03355348e-02 9.50893760e-03 -9.33983922e-02 -7.42411846e-03
      5.01488112e-02 4.85632904e-02 1.83025952e-02 -5.77028319e-02
      -1.05250731e-01 -8.10283646e-02 1.03023253e-01 -3.92206013e-02
      -8.28265473e-02 -2.74080820e-02 -3.78139652e-02 4.51211527e-04
      4.81739640e-03 -1.90412235e-02 6.21731617e-02 -9.05251428e-02
      -1.52745545e-02 1.87011808e-02 9.30029601e-02 5.59226573e-02
      -8.59016925e-03 -1.84933841e-02 -1.38454475e-02 2.70137731e-02
      -6.54778853e-02 -1.22333840e-01 -1.58211440e-02 -1.43900886e-02
      9.30081084e-02 2.92744264e-02 -7.23690242e-02 -3.37005816e-02
      -6.16537174e-03 5.44329062e-02 1.07666224e-01 -5.67314960e-02
      -1.36892525e-02 -6.67788694e-03 -1.94806289e-02 -8.22978001e-03
      -5.26927225e-03 -1.86098032e-02 2.49586310e-02 1.12843916e-01
      -3.31116579e-02 8.70212764e-02 3.53187416e-03 -6.45103976e-02
      1.10240662e-02 -2.43438426e-02 -8.03850144e-02 -1.52737439e-01
      -1.16084546e-01 -5.71068078e-02 1.62188001e-02 1.14904955e-01
      8.12332332e-02 1.49445543e-02 1.18957244e-01 -2.99198907e-02
      -7.97028393e-02 8.00484978e-03 5.25039323e-02 -2.26638950e-02
      -3.77062596e-02 2.03292556e-02 9.73096304e-03 3.57714780e-02
      2.21788492e-02 4.20196839e-02 3.07606161e-02 1.32567719e-01
      7.46267438e-02 -4.74197753e-02 -8.40338971e-03 -8.23446289e-02
      7.25662559e-02 -4.08437550e-02 -9.44369510e-02 7.31768319e-03
      4.70602587e-02 9.32140574e-02 1.28365353e-01 7.17257261e-02
      1.98356453e-02 -8.82543549e-02 -1.81604147e-01 3.22656073e-02
      6.33404404e-03 8.97443965e-02 -3.51264626e-02 6.07708981e-03
      9.24621746e-02 8.89815092e-02 4.84278947e-02 8.33562985e-02
      -6.53095823e-03 -3.10207009e-02 -4.83599864e-02 -3.43243405e-02
      3.65717262e-02 7.79693425e-02 2.20761120e-01 -1.35225514e-02
      -7.37514859e-03 -2.75664544e-03 1.58038735e-02 -4.64082733e-02
      7.39805773e-02 5.59114926e-02 7.54524916e-02 1.19130656e-01
      6.18579797e-02 -6.41648099e-03 7.98964798e-02 1.57353282e-01
      -3.30029353e-02 2.00146865e-02 3.17167453e-02 -4.91140597e-02
      3.16136926e-02 2.23805010e-02 1.06629767e-01 8.88130739e-02
      1.36906030e-02 -3.09094298e-03 6.15476556e-02 8.10208619e-02
      5.83627783e-02 2.94129644e-03 -6.00665584e-02 -3.08464859e-02
      -9.45253000e-02 -3.89187448e-02 1.61686763e-02 -2.86040537e-04
      -4.53899167e-02 4.26556915e-02 7.20615685e-02 1.08553149e-01
      1.64863348e-01 1.32648662e-01 6.90217689e-02 -9.63650271e-03
      -4.15912122e-02 3.89155708e-02 -4.92805466e-02 -5.64406291e-02
      6.24025464e-02 4.25846763e-02 -2.67913416e-02 7.96233639e-02
      -7.86386710e-03 -1.19970571e-02 1.53838515e-01 1.11006960e-01
      -9.98254046e-02 4.10443544e-02 -9.36698988e-02 -1.52881697e-01
      -5.46761490e-02 -6.97661564e-02 -2.72396412e-02 1.22327777e-02
      6.61866739e-02 1.22228324e-01 6.88736886e-02 7.58063421e-02
      3.22692469e-02 -1.37623683e-01 -3.31691951e-02 -1.06451467e-01
      -2.06671447e-01 -4.74567972e-02 9.65007544e-02 1.52915105e-01
      -1.18435271e-01 -7.80400112e-02 -9.10822004e-02 -5.53213060e-02
      -8.73233080e-02 -1.17538191e-01 1.46887705e-01 -6.58491030e-02
      6.85943514e-02 3.04978341e-02 -5.37363626e-02 -3.05704959e-02
      -4.06249333e-03 4.57637496e-02 6.18813857e-02 -2.11890172e-02
      -1.29425466e-01 2.32415297e-03 3.51079479e-02 6.17381148e-02
      1.61023214e-02 -1.28067816e-02 1.40404943e-02 9.00714938e-03
      -6.53965697e-02 -3.48096974e-02 -5.97964749e-02 -4.02400382e-02
      -1.26565844e-01 6.83069676e-02 -6.24335883e-03 -8.21180716e-02
      -1.46708831e-01 2.49933824e-02 -1.47693723e-01 -1.22841388e-01
      7.90092796e-02 -8.68225098e-03 6.13749214e-02 8.70675035e-03
      -1.25502497e-02 -3.23702232e-03 -4.99883257e-02 -1.82898313e-01
      -3.65448557e-02 -1.89553499e-01 -3.28239799e-02 4.64770868e-02
      1.07041247e-01 4.75459695e-02 4.24480066e-02 -3.68876681e-02
      -2.31011268e-02 -3.50402817e-02 -1.94848925e-02 -7.66426921e-02
      -7.39329159e-02 4.62477170e-02 5.27706668e-02 -7.29539022e-02
      3.94370360e-03 5.55913672e-02 1.07686870e-01 -2.86784142e-01
      2.63353229e-01 -6.04324006e-02 -1.05886996e-01 -1.58960018e-02
      -1.18003510e-01 -2.25077141e-02 -2.69912258e-02 -1.04282930e-01
      -5.04042692e-02 -8.68839920e-02 1.31663112e-02 -1.44017547e-01
      -6.71482906e-02 -1.26024395e-01 -3.79629359e-02 3.11436802e-02
      -1.83256805e-01 2.46597305e-02 -5.09567037e-02 -1.85398802e-01
      -4.70801927e-02 -7.40207359e-02 -7.95943290e-02 -3.61249708e-02
      2.53387224e-02 -2.72268001e-02 1.21116944e-01 -1.56949870e-02
      4.57685329e-02 -7.34745935e-02 -6.33003786e-02 1.19131662e-01
      1.39603332e-01 -9.49652344e-02 -8.69510844e-02 -8.62636119e-02
      -2.05130279e-02 -1.28490642e-01 -1.43196091e-01 -1.40354365e-01
      -6.28470778e-02 8.74510780e-03 -2.53655072e-02 8.44739377e-02
      -2.25949381e-02 3.00097242e-02 -1.03093989e-01 2.22578011e-02
      -3.42888869e-02 -2.21909378e-02 2.49708313e-02 2.63944082e-02
      3.40324156e-02 7.52198044e-03 -5.11172302e-02 1.95792794e-01
      2.73326766e-02 4.17276025e-02 5.15057780e-02 8.76035765e-02
      -1.18403481e-02 -6.16932213e-02 1.22612774e-01 -3.38840038e-02
      4.69715931e-02 1.07227229e-01 1.24493137e-01 1.43767208e-01
      -3.64584923e-02 7.59803504e-02 1.37021706e-01 1.09733827e-02
      9.69218835e-02 6.36919886e-02 6.87021241e-02 -1.17187900e-02
      -1.41370883e-02 -6.15651868e-02 -1.45207062e-01 7.87085518e-02
      8.83529037e-02 4.12740298e-02 -1.05752468e-01 2.66015641e-02
      1.98882706e-02 7.81461373e-02 1.44646328e-03 9.78846569e-03
      1.15512509e-03 5.16372249e-02 1.64776891e-01 -1.13637280e-02
      -5.89398332e-02 1.67535823e-02 4.84883003e-02 8.01200047e-02
      1.05215451e-02 3.54617052e-02 -4.48342636e-02 1.66870318e-02
      1.08451687e-01 -8.02261755e-03 2.33054683e-02 1.70887180e-03
      1.78422462e-02 6.60346523e-02 -6.95857555e-02 5.80860022e-03
      -1.46925449e-01 -2.79924553e-02 4.26389277e-02 7.39059374e-02
      1.30176395e-01 4.58823368e-02 1.92721095e-02 5.57094291e-02
      -1.42817646e-02 -3.24510001e-02 8.61258358e-02 3.51756923e-02
      1.19415643e-02 -3.55677716e-02 -5.46102226e-02 5.35860471e-03
      -1.32122129e-01 3.96004692e-02 -4.24722955e-02 1.18076377e-01
      4.36850190e-02 8.59746411e-02 -4.62856423e-03 5.43777756e-02
      -5.28691113e-02 -3.98719981e-02 -8.40216801e-02 -1.84196606e-02
      -3.28555424e-03 5.48150241e-02 7.10113645e-02 9.58716124e-02
      1.72595847e-02 -1.85026731e-02 1.35290578e-01 1.46551915e-02
      1.03851752e-02 1.01331361e-01 2.74886731e-02 -4.11669612e-02
      1.80246104e-02 -6.49046451e-02 -1.67431906e-02 -1.75728183e-02
      -5.30454256e-02 -1.25362454e-02 4.81322445e-02 -1.20765658e-03
      1.62696578e-02 8.99276882e-02 -1.73346717e-02 3.85549432e-03
      -3.75666618e-02 -4.38474268e-02 -3.03905900e-03 -4.27400954e-02
      -3.40092145e-02 9.20450091e-02 9.13590267e-02 9.99664888e-02
      7.88559616e-02 -1.19542908e-02 -4.34893034e-02 3.78131634e-03
      -6.13151770e-03 -1.46888196e-01 1.02076374e-01 3.97618227e-02
      -1.44444825e-02 1.15079049e-03 -5.25378436e-03 2.16821089e-01
      7.29295388e-02 6.20088074e-04 -2.79595014e-02 2.68114433e-02
      8.96576643e-02 6.97764754e-02 4.50217240e-02 7.58951306e-02
      4.13027517e-02 -4.29669581e-02 -5.31710498e-02 4.75176498e-02
      8.34448040e-02 -4.49175248e-03 1.23814002e-01 4.82296385e-02
      1.30026743e-01 3.62265110e-02 -3.48810963e-02 -3.17641236e-02
      3.55647653e-02 1.29169691e-02 1.97705738e-02 -3.23329605e-02
      1.95556432e-02 -1.51034594e-02 6.28018426e-03 -1.26556575e-01
      2.77741160e-02 -4.96863909e-02 -1.68418493e-02 1.80248246e-01
      7.68569261e-02 -4.89956364e-02 2.73599029e-02 -8.81238133e-02
      -9.84003022e-02 1.75539237e-02 -2.28565205e-02 4.39896584e-02
      -1.17622968e-03 4.73083835e-03 4.44277637e-02 9.69112366e-02
      3.42733897e-02 -3.44927050e-02 5.30644692e-02 5.16853817e-02
      -5.92161231e-02 -2.98040248e-02 5.54109290e-02 8.04757699e-02
      -3.99499945e-02 1.24417795e-02 1.26115337e-01 1.56790465e-02
      -8.49467441e-02 3.90573667e-04 1.31418854e-01 6.97176233e-02
      -6.40892088e-02 5.72653972e-02 -2.90911626e-02 2.12013852e-02
      -2.67464872e-02 1.48366289e-02 1.34330168e-01 2.27020532e-02
      6.85025156e-02 6.25243364e-03 5.09302206e-02 1.20202765e-01
      3.52423638e-02 -7.33512640e-02 -6.05391823e-02 -1.23947158e-01
      -1.96224451e-01 -9.72699374e-02 4.91224527e-02 6.18607216e-02
      4.59897816e-02 -4.20458503e-02 -1.83403436e-02 -9.33602527e-02
      -8.25738348e-03 -6.70638084e-02 2.83870231e-02 -8.79076943e-02
      5.09469919e-02 -1.46046188e-02 6.11295886e-02 -7.25946352e-02
      1.01482598e-02 -6.30059233e-03 7.25404993e-02 1.53044509e-02
      -1.15273565e-01 6.91030398e-02 -7.26535842e-02 -3.21832299e-02
      5.26201725e-02 -5.34369089e-02 6.94850162e-02 -9.74867642e-02
      -8.28432441e-02 5.88232372e-03 1.10842614e-02 5.42387972e-03
      -1.35099161e-02 -1.47729442e-01 -1.12586670e-01 1.46516161e-02
      -8.93325955e-02 2.03318130e-02 1.16256744e-01 9.19439420e-02
      -1.12123385e-01 6.74057454e-02 -2.21652985e-02 -8.71140361e-02
      -1.53028267e-02 2.00529974e-02 -1.19848177e-02 -8.81563872e-02
      3.84609550e-02 4.76822536e-03 -1.92086771e-02 3.66277149e-04
      -4.53050658e-02 -5.46971932e-02 -2.50639077e-02 -1.54965594e-01
      -5.13074100e-02 -4.64404561e-02 9.52463895e-02 -1.77694052e-01
      1.59447819e-01 1.17064863e-01 1.14744440e-01 -1.85687859e-02
      8.70140940e-02 9.70897302e-02 1.02199428e-01 -1.94174722e-01
      -5.36683423e-04 1.33151218e-01 -1.38683468e-01 -9.21720788e-02
      3.28403004e-02 1.26810791e-02 -5.16969301e-02 -4.73439842e-02
      -3.40536274e-02 4.12271731e-02 1.32751435e-01 -7.33733103e-02
      -1.04430325e-01 -5.23326360e-03 1.20097864e-02 9.20453072e-02
      1.03632614e-01 6.42417297e-02 8.50869417e-02 -2.14017034e-02
      1.07374573e-02 2.55253259e-02 -4.38873935e-03 -2.45553977e-03
      2.02806704e-02 1.01172246e-01 2.18559653e-01 -8.93627480e-02
      9.92083400e-02 -5.20567670e-02 -4.36858125e-02 1.37210432e-02
      -5.89146391e-02 -1.12038858e-01 -2.52110839e-01 -3.22654620e-02
      9.10508707e-02 2.08610501e-02 -7.85220787e-02 -1.20812431e-01
      -4.18944024e-02 -1.12696230e-01 -7.85007328e-02 -7.64059424e-02
      2.76674256e-02 4.82348688e-02 -8.12197179e-02 -1.04429707e-01
      -7.50664016e-03 9.67992917e-02 5.92298098e-02 -4.55522388e-02
      -1.32619049e-02 2.35728566e-02 -1.95715930e-02 2.53306497e-02
      -2.26108599e-02 -8.29243511e-02 1.93060011e-01 1.37348533e-01
      5.33014461e-02 -3.49686623e-01 7.44160265e-02 -5.33141121e-02
      -2.81202849e-02 6.73138648e-02 -4.37907316e-02 -1.56943157e-01
      -1.61954891e-02 1.94592476e-01 -1.23177864e-01 -1.35277823e-01
      2.49779057e-02 -9.72241238e-02 7.58687854e-02 3.47384214e-02
      3.21722031e-02 -5.52935749e-02 -2.69132406e-02 8.87792632e-02
      1.30523801e-01 5.03756627e-02 1.01581343e-01 7.24722072e-02
      6.28280938e-02 1.55060917e-01 7.76317343e-02 5.60906995e-03
      4.82325554e-02 1.29376337e-01 -7.98293799e-02 7.26115331e-02
      2.45053098e-02 -1.25066480e-02 8.57654121e-03 5.77820744e-03
      7.97804892e-02 -9.86864790e-02 7.94619918e-02 7.37628788e-02
      -1.75676551e-02 1.17855994e-02 1.72794294e-02 -3.01900972e-02
      1.27499223e-01 3.50536294e-02 -2.12210659e-02 3.40058804e-02
      2.12482139e-02 5.79024069e-02 4.85501438e-02 4.97042760e-02
      1.80716053e-01 7.03695193e-02 -2.19397061e-02 1.00384809e-01
      -1.31184354e-01 4.12203744e-02 -5.09014390e-02 -7.93978479e-03
      -1.55952513e-01 9.08455923e-02 7.83284474e-03 -1.54410899e-02
      5.88358305e-02 6.24557436e-02 -1.02201283e-01 2.33203731e-02
      -7.75433108e-02 -2.98664663e-02 1.48673616e-02 3.86526585e-02
      8.09867084e-02 3.72350439e-02 -1.48639921e-03 -3.81311327e-02
      -1.01707932e-02 9.71914083e-02 6.16082288e-02 7.88054019e-02
      2.58349702e-02 1.60940606e-02 2.14140248e-02 -1.40380844e-01
      6.89033419e-02 1.37362350e-02 6.55198982e-03 1.14947356e-01
      -5.46809211e-02 -7.21659278e-03 9.50169712e-02 1.38744414e-02
      9.20518711e-02 9.40564647e-02 5.30206226e-02 6.82824105e-03
      5.79669001e-03 1.04508251e-01 9.77350175e-02 5.08340821e-03
      -1.48024902e-01 7.37134740e-02 1.41492030e-02 3.01687252e-02
      -2.45339870e-02 1.36159703e-01 -4.20378940e-03 1.02514140e-01
      8.49309191e-02 3.76613550e-02 3.82882245e-02 -9.81959403e-02
      -1.22810723e-02 6.36684820e-02 8.29363763e-02 4.78588790e-02
      2.21854579e-02 -3.07590291e-02 -4.05389406e-02 2.38613993e-01
      -1.48431450e-01 -7.43100839e-03 -3.74162309e-02 -8.13551992e-02
      8.60892236e-03 2.96402983e-02 2.94243246e-02 1.53190121e-01
      -7.49790203e-03 -1.02423891e-01 1.11946926e-01 -4.40271646e-02
      1.18620545e-01 7.36651346e-02 1.16220778e-02 -1.81055535e-03
      1.42820114e-02 -1.70840383e-01 1.14394523e-01 9.39315185e-02
      8.36258903e-02 -5.69785014e-02 -4.96581085e-02 3.27751273e-03
      5.09240292e-02 -9.70914885e-02 1.47056952e-01 5.05341366e-02
      -2.31041759e-03 -8.06461200e-02 2.13452671e-02 1.19860873e-01
      1.15073279e-01 4.99842204e-02 1.19523875e-01 2.90928576e-02
      -2.76150554e-02 -9.77099314e-03 9.72234160e-02 1.96790230e-02
      9.85583141e-02 6.75205663e-02 8.28485936e-02 -8.24267492e-02
      5.89567944e-02 1.32725626e-01 5.73966727e-02 1.40324637e-01
      4.76045087e-02 -6.39831945e-02 3.88742834e-02 -1.22511446e-01
      -1.32129341e-01 1.11157715e-01 -2.27337033e-02 -4.68121935e-03
      1.71501171e-02 -2.18371172e-02 7.12241337e-04 5.29508404e-02
      2.11637672e-02 -5.75918555e-02 -3.55482213e-02 -4.70055221e-03
      -1.08493216e-01 6.14167340e-02 4.99615408e-02 6.25052452e-02
      6.60710037e-02 -3.18733696e-03 7.78200701e-02 3.13783460e-03
      4.18994799e-02 -9.34380814e-02 -9.00351182e-02 -6.04063086e-02
      -9.11150798e-02 -8.06654245e-02 1.15982862e-02 5.99168465e-02
      1.79639924e-03 1.69166207e-01 -2.49660760e-01 -2.47212708e-01
      -2.31484082e-02 -1.73232943e-01 -7.65408948e-03 1.56000301e-01
      1.80988848e-01 8.54002312e-02 8.87818076e-03 -6.52961209e-02
      3.10351402e-02 1.07613236e-01 1.56142056e-01 8.28766897e-02
      -2.86730062e-02 -8.44696909e-03 1.96035337e-02 -5.14766260e-04
      -5.85322194e-02 9.31718498e-02 -1.08543560e-02 5.86363114e-02
      -9.53537822e-02 -2.45069265e-02 5.32729812e-02 6.59192577e-02
      3.09173260e-02 -3.99814285e-02 -6.99933916e-02 5.00246771e-02
      5.01226969e-02 9.36655328e-02 1.16535485e-01 1.26879543e-01
      2.79641990e-02 -2.77145635e-02 7.04179257e-02 1.00306243e-01
      8.77050087e-02 6.45104004e-03 -5.80614200e-03 -7.92939067e-02
      -1.46008968e-01 6.55306652e-02 -1.59179598e-01 -4.90730107e-02
      -3.92822288e-02 -1.16721466e-01 -1.31463021e-01 4.88394499e-02
      -8.67232215e-03 5.97646832e-02 -2.94953324e-02 2.66311504e-02
      -1.75500467e-01 -3.95492390e-02 1.17936060e-01 -1.27751641e-02
      -2.90242452e-02 5.12094907e-02 1.14438348e-02 -2.31768098e-02</_></support_vectors>
  <decision_functions>
    <_>
      <sv_count>1</sv_count>
      <rho>-3.5911918005841698e-01</rho>
      <alpha>
        1.</alpha></_></decision_functions></opencv_ml_svm>
</opencv_storage>
