<?xml version="1.0"?>
<opencv_storage>
<opencv_ml_svm>
  <format>3</format>
  <svmType>C_SVC</svmType>
  <kernel>
    <type>LINEAR</type></kernel>
  <C>2.5000000000000000e+00</C>
  <term_criteria><epsilon>2.2204460492503131e-16</epsilon>
    <iterations>1000</iterations></term_criteria>
  <var_count>2268</var_count>
  <class_count>10</class_count>
  <class_labels type_id="opencv-matrix">
    <rows>10</rows>
    <cols>1</cols>
    <dt>i</dt>
    <data>
      0 1 2 3 4 5 6 7 8 9</data></class_labels>
  <sv_total>45</sv_total>
  <support_vectors>
    <_>
      1.26069576e-01 9.34982970e-02 -1.10190697e-01 -2.36642025e-02
      7.64967576e-02 1.15390368e-01 5.26122972e-02 9.51321498e-02
      3.09542548e-02 8.58754069e-02 -1.72165073e-02 -4.19588238e-02
      1.51752010e-01 1.11557879e-01 1.17967278e-01 5.30363247e-02
      6.35565771e-03 -2.42850315e-02 7.09219649e-02 -2.83909738e-02
      -1.35388561e-02 2.85205040e-02 8.85694399e-02 1.79266057e-03
      -3.68248560e-02 -7.06875250e-02 -6.20760694e-02 -1.36684924e-01
      1.21263556e-01 -1.46289155e-01 -1.15611896e-01 -4.42988202e-02
      -3.25269513e-02 -1.10506676e-01 -2.78741680e-03 -1.06735371e-01
      1.23472422e-01 2.69370049e-01 -9.05148387e-02 1.56421419e-02
      -4.91973981e-02 7.96701908e-02 -3.68870758e-02 -4.58313450e-02
      -1.04131170e-01 7.66137391e-02 -2.91029317e-03 -1.10542454e-01
      -3.45961601e-02 2.02425476e-02 5.74535616e-02 8.55672732e-02
      8.77942666e-02 -7.85466575e-04 2.25476967e-03 1.07109278e-01
      -1.54668391e-01 -1.29412591e-01 1.90903712e-03 -3.19597162e-02
      -1.03000611e-01 -7.07837120e-02 -8.69351998e-02 6.41571507e-02
      4.11162190e-02 -4.65013869e-02 -1.16736501e-01 -5.45593537e-02
      -2.67120097e-02 -5.40066436e-02 -9.81488898e-02 3.98395583e-02
      2.32603271e-02 -3.22435871e-02 -6.88518956e-02 -2.51485803e-03
      -2.72376966e-02 4.12346497e-02 5.44532388e-02 7.42572770e-02
      2.21381779e-03 7.07007870e-02 4.14362103e-02 1.89830791e-02
      4.21405695e-02 3.74721661e-02 -4.02998775e-02 -4.39028628e-02
      -7.72531182e-02 -4.36408147e-02 2.04352379e-01 3.32708023e-02
      7.25189373e-02 7.42651522e-02 4.99944463e-02 -8.95652547e-02
      -1.84503958e-01 1.41097009e-02 1.12945683e-01 2.38653332e-01
      7.90959150e-02 4.43638191e-02 7.77691081e-02 6.23371564e-02
      6.79856772e-03 -6.24280423e-03 8.07185397e-02 2.07556173e-01
      2.36324407e-02 1.58985127e-02 -1.29999429e-01 -7.85336196e-02
      -7.16558248e-02 -2.59538693e-03 2.30536666e-02 4.94715087e-02
      -1.05566166e-01 3.28233168e-02 2.35970952e-02 -8.08186904e-02
      -3.12270001e-02 -3.70100141e-02 2.70138644e-02 9.14292037e-02
      1.10957295e-01 8.39298144e-02 5.57170697e-02 6.06710203e-02
      3.71795371e-02 4.36660945e-02 1.05490379e-01 4.58887257e-02
      3.94875444e-02 1.31295085e-01 8.43424797e-02 -4.89036255e-02
      -5.63249886e-02 -1.67027965e-01 -1.07757665e-01 -9.36149582e-02
      -1.70201063e-02 1.64373463e-03 3.88811789e-02 -8.72961134e-02
      -6.13204353e-02 4.21930337e-03 -7.77346194e-02 8.44930857e-03
      -2.33005006e-02 8.05134177e-02 1.69995591e-01 8.34711343e-02
      -2.42795702e-02 -1.09402919e-02 2.75162868e-02 -2.97465958e-02
      3.34131047e-02 4.87607718e-02 2.64700372e-02 6.27555549e-02
      1.26759142e-01 -1.96655281e-02 1.08856939e-01 -9.27604211e-04
      6.40874356e-03 5.88948764e-02 -8.55080038e-03 -3.49179767e-02
      -6.47462308e-02 -1.03051150e-02 8.86100531e-02 2.48483658e-01
      4.57937717e-02 -2.14852821e-02 6.65242299e-02 -9.86515209e-02
      -8.59382823e-02 -1.67601600e-01 -5.01715019e-02 2.13607535e-01
      2.11281225e-01 5.60052972e-03 -4.15215036e-03 -4.63730097e-03
      -4.83127944e-02 -1.25389136e-02 -3.02141849e-02 -1.32717982e-01
      1.37611553e-01 2.31831963e-03 -1.66666973e-02 -4.72128689e-02
      -4.99533974e-02 -1.96279818e-03 3.85823147e-03 4.95874509e-03
      7.83473700e-02 -2.62134951e-02 3.32551189e-02 -9.53920186e-02
      -4.73250262e-02 4.87930235e-03 1.88922081e-02 -5.10431193e-02
      -1.54394563e-02 -6.16387278e-02 4.98283096e-02 -3.17582749e-02
      -5.38677312e-02 -4.59690252e-03 -7.18815206e-03 -3.46982963e-02
      -2.93667447e-02 -1.97768006e-02 -3.67988721e-02 4.84842844e-02
      -5.68662882e-02 -7.58523020e-05 -5.66923097e-02 -1.00395633e-02
      -2.45342758e-02 -1.75908091e-03 6.02729470e-02 9.05769784e-03
      -5.03738672e-02 -7.75319338e-02 -9.68336388e-02 -5.75681590e-02
      -9.34747420e-03 2.53066737e-02 -5.74190542e-03 1.05487190e-01
      9.20867994e-02 -4.52060765e-03 -6.94914758e-02 -6.81311786e-02
      4.88133403e-03 -1.68610644e-02 -2.57843044e-02 -1.16690854e-02
      -3.25599010e-03 9.22355726e-02 -2.41043959e-02 1.65040851e-01
      3.94126913e-03 -6.08056933e-02 -3.37806367e-03 -5.89259006e-02
      -2.89617702e-02 -4.76653278e-02 -1.07687324e-01 1.26346618e-01
      2.02643916e-01 1.37196764e-01 7.34142289e-02 3.57405399e-03
      -7.01665506e-02 6.64849132e-02 3.57844383e-02 9.40267965e-02
      1.95852250e-01 8.08717310e-03 1.65852811e-02 3.23076732e-02
      -2.06114426e-02 -3.19252424e-02 1.55212097e-02 -2.02719979e-02
      7.36353695e-02 5.67240380e-02 -6.23688735e-02 -8.11854824e-02
      -4.03892770e-02 1.40774595e-02 -2.99616288e-02 -3.24116684e-02
      -1.93481278e-02 5.45517802e-02 9.51462984e-02 -1.24805957e-01
      -1.64117560e-01 1.25206150e-02 8.77135694e-02 -7.24827647e-02
      3.05005107e-02 2.06209570e-02 1.29172638e-01 -1.26550972e-01
      -1.28213838e-01 -1.85739368e-01 -9.61232334e-02 -3.44559513e-02
      -3.99210677e-02 3.98581661e-02 1.13556363e-01 9.07831043e-02
      -6.20161928e-02 -5.58558032e-02 -1.30042769e-02 6.23575086e-03
      1.97076481e-02 -2.03140825e-03 -7.85583723e-03 2.93567050e-02
      7.54498541e-02 -1.74623728e-02 -2.52733193e-02 -1.54079333e-01
      -1.53084903e-03 8.85229465e-03 -3.19471247e-02 8.62783473e-03
      3.94805446e-02 1.06572229e-02 2.35600136e-02 -1.34837821e-01
      -2.20749080e-01 -1.20531909e-01 -8.01520273e-02 -8.46140385e-02
      1.71053335e-02 7.94853047e-02 1.47195831e-01 2.52751950e-02
      -1.80140764e-01 1.85020659e-02 -1.50250867e-01 -9.70437750e-02
      -3.02989464e-02 -7.52355671e-03 -5.84111512e-02 -3.87183949e-03
      -1.35583177e-01 -2.61873938e-02 1.06586672e-01 -9.12971050e-02
      -6.17926829e-02 -2.37134285e-02 7.46953189e-02 -5.47188520e-02
      -5.09608835e-02 -1.62775353e-01 7.83218443e-03 -5.49580827e-02
      -1.29014552e-01 -3.82664725e-02 -1.06526436e-02 4.44700196e-02
      6.87103495e-02 7.75848851e-02 -3.27612013e-02 6.04687855e-02
      1.00443877e-01 -2.29987904e-01 -1.44602448e-01 5.63965626e-02
      1.78245325e-02 -1.18979458e-02 -1.87766887e-02 -6.16606846e-02
      3.77423987e-02 -5.24902381e-02 -7.93938711e-03 -1.82459295e-01
      -5.21938689e-02 -3.40548344e-02 2.41024350e-03 -1.11965396e-01
      5.72176203e-02 3.38601992e-02 -5.22030480e-02 -9.10593569e-02
      8.92554689e-03 -1.74998231e-02 3.76066044e-02 5.00871614e-02
      7.74055570e-02 3.48351076e-02 7.74134696e-02 3.98156345e-02
      -1.33762956e-01 -9.14963335e-02 7.49219358e-02 1.68954860e-02
      1.06951244e-01 3.48806530e-02 -1.20613918e-01 1.49441361e-01
      1.98052257e-01 1.49186896e-02 -9.63054672e-02 -2.23226491e-02
      1.99556872e-02 6.94105402e-02 8.60129967e-02 2.08917320e-01
      2.81402972e-02 -4.00253721e-02 -8.85708537e-03 5.27432822e-02
      1.07016470e-02 -4.36669402e-03 -2.78467350e-02 -2.68138703e-02
      2.34489575e-01 5.27532445e-03 -5.43405078e-02 -1.63088903e-01
      -7.49379322e-02 -7.75309354e-02 6.42467057e-04 -1.15602342e-02
      1.75054781e-02 -8.29358399e-02 8.08583796e-02 -7.00024515e-02
      -1.90679178e-01 -9.45515856e-02 -1.07901908e-01 9.36296210e-03
      4.06978577e-02 9.82192606e-02 1.42508864e-01 -4.49385447e-03
      9.48322564e-03 -2.20640656e-02 2.46978719e-02 6.81895465e-02
      2.75376942e-02 3.63761559e-02 1.11456066e-01 6.63265735e-02
      3.49027626e-02 -8.70903954e-02 -2.09479511e-01 -1.14059299e-01
      -1.10869892e-01 -1.05508501e-02 -1.08942380e-02 2.76823919e-02
      -1.68736409e-02 -3.06621902e-02 -1.12435006e-01 -1.74094409e-01
      -1.57006513e-02 -7.35113174e-02 8.55303742e-03 4.25723679e-02
      -1.37454541e-02 -4.01274906e-03 3.58083732e-02 -8.71345983e-04
      -1.83343831e-02 6.18689694e-02 3.51514556e-02 3.34268212e-02
      5.18412925e-02 1.20440058e-01 6.45475611e-02 1.59306183e-01
      -5.99282645e-02 -1.40447944e-01 -5.97852804e-02 -5.09549826e-02
      -4.38174456e-02 -5.40277064e-02 -5.00873923e-02 6.09631650e-02
      -7.73105919e-02 -5.81794679e-02 -2.79639363e-02 8.80663395e-02
      2.67381016e-02 -7.53897475e-03 -6.94555193e-02 -2.64091529e-02
      4.81234677e-03 8.87596309e-02 -6.90902025e-02 -2.85872426e-02
      3.02624237e-02 8.74057133e-03 7.73871318e-03 6.51100324e-03
      -3.66275273e-02 -2.76091811e-03 -1.13782762e-02 -3.17089893e-02
      -6.81132600e-02 -5.66360056e-02 -2.05837861e-02 -1.42447799e-02
      -7.99952354e-03 4.65849452e-02 1.22346394e-02 -9.47660301e-03
      -5.14179580e-02 -4.28327173e-02 1.41966818e-02 -2.09756009e-02
      -6.36112541e-02 -9.70531777e-02 -3.51918712e-02 4.38056402e-02
      -1.24158533e-02 -1.22508956e-02 1.00927260e-02 8.79971683e-03
      -2.75931470e-02 -3.06578297e-02 -7.37649426e-02 -2.34644227e-02
      8.42027180e-03 2.32145954e-02 -1.71228200e-02 -8.47300291e-02
      -5.47147775e-03 -5.60523458e-02 4.06126864e-03 4.90666227e-03
      2.07266416e-02 -5.30787669e-02 -1.45643754e-02 -8.73360038e-02
      -7.97510222e-02 -9.86966770e-03 -3.75559777e-02 2.61903722e-02
      3.20125632e-02 5.36315106e-02 -5.55118844e-02 4.72270660e-02
      -2.73542292e-02 -1.19566894e-03 -8.55668914e-03 -4.10813764e-02
      -1.94419920e-02 -2.48531792e-02 1.13657646e-01 1.12086155e-01
      4.37734053e-02 -5.04329540e-02 -6.55534118e-02 4.48266277e-03
      -2.31915787e-02 -1.91933867e-02 -6.01419732e-02 -1.18771449e-01
      -2.98957229e-02 -6.34152666e-02 -1.55336633e-01 -1.29489541e-01
      2.19363347e-02 -7.76602104e-02 1.16110435e-02 1.84394850e-03
      -9.72523317e-02 -7.78619349e-02 -9.25412215e-03 -3.91897652e-03
      -2.82185264e-02 -2.37723067e-02 -3.67532969e-02 3.16523807e-03
      9.16524441e-04 9.03006494e-02 6.49355650e-02 -5.14665619e-02
      -6.64407909e-02 -4.17289138e-02 9.70418379e-03 -1.05187362e-02
      -2.52157804e-02 -4.25660387e-02 8.63408204e-03 4.63175327e-02
      -1.40207872e-01 -1.45992979e-01 7.65032927e-03 3.16632204e-02
      -6.69975951e-02 -5.95759824e-02 -9.61994380e-02 4.25550193e-02
      -1.29922181e-02 -1.10533804e-01 -1.52841225e-01 -7.53905252e-02
      -4.56122868e-02 -4.44905981e-02 3.88335879e-03 4.51027118e-02
      -1.81168672e-02 -6.73444569e-02 4.35899198e-02 -2.69337147e-02
      -2.68277824e-02 1.27136800e-02 -1.16397161e-02 -3.32049886e-03
      -9.99217294e-03 1.29322723e-01 6.81485757e-02 -8.65743160e-02
      -1.15685686e-01 -3.72166522e-02 -6.01009408e-04 -5.90998381e-02
      -4.32506436e-03 -2.85663661e-02 -1.10839326e-02 1.26095423e-02
      -1.26387224e-01 -2.06452012e-01 -7.37914816e-02 -4.42398340e-02
      -8.25416818e-02 2.54302043e-02 4.91019711e-02 9.80221629e-02
      7.98527300e-02 1.50995642e-01 3.19024250e-02 -2.31418628e-02
      -9.52578615e-03 -3.02296914e-02 7.54383113e-03 3.16985063e-02
      9.38304067e-02 7.70594403e-02 5.92337595e-03 -8.83433223e-02
      -2.38411147e-02 -4.70886268e-02 -4.35493775e-02 3.96950580e-02
      7.47992173e-02 9.73710790e-02 -4.22443785e-02 -1.60592735e-01
      -3.62952240e-02 -3.01125664e-02 -3.01563479e-02 -4.61194217e-02
      -6.10144984e-04 4.52980846e-02 1.48604438e-01 5.42567447e-02
      4.33686450e-02 4.45753373e-02 -2.45882064e-01 -1.47211254e-01
      4.08318564e-02 2.52336506e-02 -8.96548294e-03 -1.68991778e-02
      -5.25907017e-02 -1.02485176e-02 -8.46725032e-02 -1.46759942e-01
      -2.16458544e-01 -3.62650603e-02 5.11489809e-02 7.79193714e-02
      -1.02098696e-01 4.47310843e-02 -4.40292768e-02 -8.12241882e-02
      -7.98834786e-02 3.04450784e-02 -1.93935223e-02 1.18962815e-02
      3.00694034e-02 2.00850721e-02 -4.53466773e-02 4.42845374e-02
      5.54769821e-02 -1.74170285e-01 -8.89127254e-02 1.14629395e-01
      4.23406959e-02 9.11382735e-02 2.94808839e-02 -2.26082012e-01
      2.86022630e-02 1.73362419e-01 -2.97545418e-02 -5.19967228e-02
      2.40240851e-03 4.77787144e-02 6.73403144e-02 -2.92793196e-03
      -9.47559029e-02 -1.09011315e-01 -5.58780469e-02 -2.86733434e-02
      6.37966692e-02 7.78810820e-03 -1.07646752e-02 -1.68329570e-02
      2.39481800e-03 4.12259214e-02 2.55033094e-02 1.41770154e-01
      -4.19599041e-02 4.73453254e-02 8.03986490e-02 1.98878758e-02
      4.63615432e-02 2.65734363e-03 -2.11947113e-01 1.61580086e-01
      3.37438285e-01 7.23347366e-02 1.14439398e-01 1.06089920e-01
      1.38130854e-03 -3.61327194e-02 -1.23956792e-01 -1.62229110e-02
      5.30003719e-02 -1.26954410e-02 -5.43444939e-02 4.07712609e-02
      -1.24039901e-02 -1.22441165e-02 -5.02556562e-04 -1.69632472e-02
      9.89324879e-03 -3.20463907e-03 -5.30015230e-02 -1.17077492e-01
      -4.27462384e-02 -5.78191355e-02 -4.45700047e-04 1.53743280e-02
      2.44815256e-02 -4.46717180e-02 -8.89634807e-03 -4.32145745e-02
      -5.91203272e-02 8.95566642e-02 -4.27582972e-02 1.25417691e-02
      2.76996698e-02 8.06633104e-03 4.88787219e-02 7.64046237e-02
      3.21291350e-02 -5.31764410e-04 6.18694983e-02 2.58280076e-02
      2.06250940e-02 3.97386663e-02 7.45821968e-02 3.50914709e-02
      -4.28800210e-02 -9.83265042e-03 -6.14759102e-02 2.06042323e-02
      -3.63546163e-02 -2.26455610e-02 -1.75117571e-02 -2.72087567e-02
      -6.23173751e-02 -2.02432752e-01 -3.69709618e-02 3.48758176e-02
      1.08011693e-01 3.10131721e-02 6.56788878e-04 -2.77353730e-02
      -5.89874573e-02 -7.63206780e-02 8.04216489e-02 -1.24766277e-02
      4.95261839e-03 3.26399244e-02 -7.01119285e-03 -2.13010842e-03
      5.41010639e-03 -3.41019891e-02 -3.11306603e-02 5.78585267e-02
      2.60664038e-02 -1.35685712e-01 -4.05616239e-02 -7.83084556e-02
      -5.57094030e-02 -4.50040102e-02 -5.01476116e-02 -4.41651093e-03
      8.79001617e-03 -6.75932094e-02 -5.94657660e-02 5.77571280e-02
      -1.40167534e-01 -6.25674874e-02 -1.78237054e-02 -1.29411910e-02
      2.02712119e-02 7.80760646e-02 -1.48086315e-02 4.37258510e-03
      3.74238789e-02 -1.35805560e-02 5.26720425e-03 2.60312445e-02
      4.57389317e-02 1.19238973e-01 -4.70983563e-03 2.14814767e-02
      -2.14112345e-02 2.80236360e-02 -3.29751037e-02 4.26265644e-03
      2.40100129e-03 1.61630567e-02 -4.83948328e-02 1.09484913e-02
      -5.06422892e-02 -3.00339628e-02 7.79635757e-02 -2.16590073e-02
      1.35317026e-02 1.85727235e-03 7.27769658e-02 8.96685570e-03
      2.58632805e-02 -1.66330412e-02 2.12021358e-03 1.17250979e-02
      -2.36639120e-02 -9.59339831e-03 -9.14061815e-03 1.32435560e-01
      9.66115668e-02 -2.18843408e-02 -5.84942028e-02 -4.05276082e-02
      1.82183571e-02 -4.19751666e-02 -1.75376814e-02 -3.84482592e-02
      -1.05368294e-01 -8.49977955e-02 -1.19837806e-01 -1.42011970e-01
      -1.09447047e-01 5.73217459e-02 -1.20377742e-01 2.30559474e-03
      -3.41267474e-02 -1.05824329e-01 -7.05284402e-02 -3.32818516e-02
      2.47668512e-02 -3.26198824e-02 -1.35226250e-02 -3.75764705e-02
      -8.13220441e-03 -3.55149806e-03 8.20955634e-02 4.28235478e-04
      -5.37391454e-02 -5.92725128e-02 -4.90797423e-02 8.83592293e-03
      -6.52332008e-02 -2.58515868e-02 -2.49296129e-02 -1.08445026e-01
      -2.49194317e-02 -5.91925159e-02 -1.41190914e-02 -5.40752411e-02
      -6.60838978e-03 -1.05140433e-01 -4.89010103e-02 -7.22524375e-02
      9.45127159e-02 -4.00749743e-02 -1.63120348e-02 6.41425997e-02
      1.84878893e-02 -1.51655506e-02 -3.33692394e-02 2.27786787e-03
      -1.87957250e-02 6.72205240e-02 2.78433878e-02 5.12837395e-02
      1.02817705e-02 1.11463545e-02 2.44264416e-02 -1.45329291e-03
      2.73568532e-03 -2.27132090e-03 7.75457248e-02 2.16093585e-02
      -2.03080382e-02 -8.59279856e-02 -1.32630924e-02 -9.20681283e-03
      -6.68466166e-02 -1.48751521e-02 -4.47032265e-02 9.71093774e-02
      4.53672335e-02 -1.45431519e-01 -1.26406848e-01 -4.01250944e-02
      -3.06190215e-02 -6.70602024e-02 1.20613202e-02 4.10441831e-02
      1.37177482e-01 6.73767775e-02 2.22014021e-02 1.35445818e-02
      -1.86900795e-02 -8.74899887e-03 -1.84509642e-02 9.28750820e-03
      1.90330129e-02 8.15948620e-02 -1.00558959e-02 -4.70890403e-02
      -1.00878961e-01 -3.76359373e-02 -6.25883639e-02 -7.79443756e-02
      6.91702263e-03 -1.28330030e-02 7.80636296e-02 -7.04641119e-02
      -1.35304496e-01 -2.87252534e-02 -1.84892062e-02 -1.01926643e-03
      -4.35378775e-02 -7.70313060e-03 5.74465878e-02 1.85900390e-01
      6.77590445e-02 -1.27983183e-01 2.97933090e-02 -4.82484186e-03
      -9.91606247e-03 -1.22120697e-02 -1.00200134e-03 -4.67822142e-02
      1.32172406e-01 -8.65408871e-03 -1.53326660e-01 -5.06807491e-02
      4.79459241e-02 1.13074714e-03 -5.99089228e-02 -3.06369103e-02
      -2.29688119e-02 3.01487390e-02 -8.42386931e-02 -1.77167863e-01
      -6.58704266e-02 3.13240923e-02 3.35163772e-02 -9.81099624e-03
      -4.96431589e-02 -2.98069082e-02 9.48989093e-02 -1.41081452e-01
      -5.91839245e-03 1.92982294e-02 -1.47433862e-01 -1.00464620e-01
      6.62687048e-02 2.57916469e-02 6.98846430e-02 3.39586847e-02
      -1.99686050e-01 5.55138141e-02 1.38366267e-01 -3.67649086e-02
      -3.21864299e-02 2.36533303e-02 2.65506785e-02 7.92529359e-02
      2.95071062e-02 -1.21637292e-01 -7.77359679e-02 -5.54982163e-02
      -6.85010552e-02 3.97662930e-02 -4.37962450e-03 -1.65351126e-02
      -6.82340376e-03 1.84234865e-02 -8.87707025e-02 6.41377866e-02
      1.70391336e-01 -5.11336178e-02 3.28760557e-02 6.88574687e-02
      3.26127559e-02 1.05724439e-01 4.78419289e-02 -2.29111061e-01
      9.45969000e-02 3.36823225e-01 7.70050362e-02 1.00944072e-01
      1.06909841e-01 5.20462450e-03 1.75026879e-02 -1.33630395e-01
      -7.46275205e-03 2.85929032e-02 -2.88217086e-02 -9.06923711e-02
      2.54100878e-02 -2.35995688e-02 -1.45392837e-02 2.22936482e-03
      -2.02912092e-02 -6.98283762e-02 -2.40840856e-02 1.73529908e-01
      1.33197559e-02 6.38627410e-02 5.64186238e-02 6.73738867e-02
      1.18297957e-01 -5.34084998e-02 -3.52216244e-01 8.85030404e-02
      1.04898512e-01 3.99834523e-03 1.51983231e-01 1.07519366e-01
      5.64394407e-02 1.38762563e-01 -1.49136456e-02 3.27486843e-02
      2.61678398e-02 1.72643759e-03 -6.25641271e-02 4.27793805e-03
      2.72070896e-02 1.54968901e-02 -2.06190143e-02 4.65123430e-02
      7.19492584e-02 -4.73780297e-02 1.14168655e-02 2.04111426e-03
      3.11704818e-02 -1.34505751e-02 -8.66374187e-03 -4.84014163e-03
      -4.63658199e-03 -1.49076000e-01 -8.57970938e-02 -6.85531870e-02
      4.87104319e-02 9.98302400e-02 2.20950730e-02 -1.08884200e-02
      -2.94492543e-02 -6.44558966e-02 -1.18253455e-02 -4.80557838e-03
      -2.31033284e-02 -8.34576786e-03 1.05344746e-02 -9.43412632e-03
      -1.07120853e-02 -2.38739629e-03 -4.54060100e-02 -9.74855945e-02
      8.08381215e-02 4.79138531e-02 -9.97986794e-02 -9.58408043e-03
      -3.90714034e-02 -3.07986587e-02 -3.10846437e-02 -2.78588175e-03
      -3.47784646e-02 -6.91103041e-02 -8.35715234e-02 -5.77414595e-02
      7.44730607e-02 -1.28170624e-01 -3.06041073e-02 -8.73053167e-03
      -1.01705171e-01 -2.62044668e-02 9.04556364e-02 -3.33685018e-02
      -1.46673378e-02 3.02323047e-02 -2.86800787e-02 2.30280147e-03
      2.13652831e-02 4.17298749e-02 1.15799107e-01 -5.50817959e-02
      -2.78887097e-02 -1.25906974e-01 -1.75627321e-02 7.95895047e-03
      -1.39742456e-02 -1.85657945e-02 2.66071036e-02 4.04081941e-02
      -3.00083160e-02 -2.67688315e-02 -1.09515265e-01 -1.43952612e-02
      -3.05153728e-02 8.24623276e-03 -4.42678742e-02 3.58217806e-02
      1.78105831e-02 9.05905291e-02 -2.90083159e-02 -1.97631717e-02
      -5.69798285e-03 -2.27586627e-02 8.02370533e-03 -7.85236526e-03
      3.34384739e-02 5.67382723e-02 -1.47978924e-02 -4.29180600e-02
      1.42893055e-02 2.63381395e-02 1.60493248e-03 -1.47389015e-03
      -5.70281642e-03 -4.70272452e-02 -8.05204585e-02 -1.99286472e-02
      -3.87457125e-02 -2.44189780e-02 8.67644697e-02 9.04516038e-03
      1.94854476e-02 3.52222025e-02 -1.10037714e-01 -5.52320778e-02
      -7.59233013e-02 3.63143208e-03 -1.78436544e-02 -2.46508187e-03
      7.54436525e-03 2.04446279e-02 3.99050824e-02 7.52296522e-02
      5.25198411e-03 2.29201410e-02 -6.12840317e-02 -2.90389769e-02
      3.04768030e-02 -3.71137299e-02 -7.06242863e-03 1.11650061e-02
      -2.36710254e-02 2.89310571e-02 1.94395725e-02 1.38479825e-02
      1.75209101e-02 2.56697554e-02 -5.81830926e-02 1.54343862e-02
      2.54858769e-02 9.12343189e-02 1.87906958e-02 6.80084601e-02
      1.15729183e-01 5.36633618e-02 -4.06605750e-03 -1.18149370e-02
      1.85802057e-02 1.22461095e-02 1.00185327e-01 5.87926544e-02
      7.70136118e-02 -1.73041821e-02 -5.37228584e-02 -8.51133838e-03
      -2.45410819e-02 -4.39281436e-03 -1.20347114e-02 5.41028567e-03
      7.78984353e-02 -5.02170883e-02 -1.00382101e-02 -3.68015356e-02
      -4.58444580e-02 -1.01235308e-01 -2.50130836e-02 -6.19328022e-02
      3.23575325e-02 8.30386113e-03 -6.05205148e-02 -1.84300728e-02
      1.86548904e-02 -1.53931752e-02 -3.33398208e-02 -2.09884364e-02
      -3.72981280e-02 3.85968573e-02 -8.99752975e-02 -2.68744864e-02
      5.74076995e-02 -5.87815465e-03 8.20600893e-03 9.61193629e-03
      1.06945187e-02 3.27689312e-02 6.26851991e-02 -3.27777788e-02
      7.06104562e-02 -1.30268792e-02 -2.91122440e-02 -1.83896665e-02
      -1.24964463e-02 -1.51854204e-02 -3.32511030e-02 5.68273552e-02
      3.45155038e-02 -1.46346778e-01 -4.26699989e-04 -3.24909319e-03
      1.38483467e-02 -1.16408132e-02 1.59294344e-03 6.36902824e-02
      1.57032773e-01 5.41750789e-02 -7.97545165e-03 7.65521377e-02
      2.60078385e-02 3.59582412e-03 1.13609317e-03 2.06545368e-02
      -6.48705661e-03 7.71695524e-02 5.77047989e-02 -7.79712051e-02
      5.23499288e-02 9.19443518e-02 -1.05302315e-02 -5.95777705e-02
      -3.56415324e-02 -4.21986021e-02 7.59094581e-02 1.10878767e-02
      -5.70812598e-02 8.96398425e-02 9.99592468e-02 5.11198454e-02
      -3.21556963e-02 -5.47436886e-02 -2.12488906e-03 1.52393222e-01
      -1.17588297e-01 -8.09662864e-02 -9.86191817e-03 1.27556249e-02
      -1.09024337e-02 -2.55931150e-02 -5.20014763e-03 -2.64407601e-02
      -4.21284474e-02 -4.82472740e-02 -2.96889067e-01 -3.53807695e-02
      -1.25549128e-02 -4.78804260e-02 -9.51140001e-02 -8.53748247e-02
      -5.04845195e-02 4.69688931e-03 -1.29347309e-01 -3.54606323e-02
      1.08668633e-01 8.21979642e-02 6.59417920e-03 -9.43299383e-02
      -5.06821647e-02 1.57384053e-02 5.80427423e-02 -1.40271798e-01
      1.15165012e-02 1.48432970e-01 -4.58174981e-02 1.43993562e-02
      1.60702765e-02 6.46111136e-03 8.40886384e-02 7.27802292e-02
      -1.60253897e-01 7.08083138e-02 2.00387016e-01 -1.75832976e-02
      5.86567521e-02 -4.53824550e-03 -2.62537804e-02 4.12424244e-02
      -6.04467914e-02 -2.00367048e-02 -1.62044168e-01 -5.58555387e-02
      -9.38708335e-02 -1.66010894e-02 -5.31681404e-02 -3.64028476e-02
      -2.76546124e-02 -6.28103241e-02 -9.29332301e-02 -3.39671969e-02
      1.98770255e-01 5.31781167e-02 5.87742031e-02 1.41993826e-02
      5.44403382e-02 1.31313324e-01 7.23355561e-02 -3.06122243e-01
      3.59749198e-02 5.06856069e-02 -1.88442059e-02 8.25203359e-02
      -6.34760875e-03 3.06425095e-02 1.66782439e-01 5.79912998e-02
      -3.24254185e-02 -2.22753342e-02 -2.31922213e-02 -8.65018293e-02
      -2.78423764e-02 1.32335806e-02 7.02491170e-03 -1.70680340e-02
      3.25163566e-02 4.39125597e-02 -1.29029542e-01 5.25906906e-02
      3.66599634e-02 4.48835306e-02 -3.57379392e-02 3.44786532e-02
      4.95424941e-02 1.67681992e-01 -3.47821154e-02 6.63094446e-02
      -1.61557645e-02 -2.00000569e-01 1.54154375e-02 -1.04586385e-01
      2.21032016e-02 6.93367347e-02 1.64571747e-01 7.76470900e-02
      8.37106109e-02 6.89349184e-03 -3.87082770e-02 5.32985711e-03
      -1.21153258e-02 -1.70648284e-02 4.86626029e-02 8.57100710e-02
      5.14513552e-02 3.37116718e-02 4.53865826e-02 -2.18762103e-02
      1.45020625e-02 -2.42909347e-03 -3.62256134e-04 1.09076016e-02
      1.89548414e-02 -3.60231549e-02 1.63399037e-02 -6.63522631e-02
      -4.10890430e-02 1.03702389e-01 -5.47999106e-02 7.91906472e-03
      2.11267043e-02 -8.46376196e-02 -6.44317791e-02 -4.95122671e-02
      -3.95718142e-02 -3.31744850e-02 2.09560692e-02 -7.50015443e-03
      2.55234912e-02 3.27281728e-02 2.59969253e-02 5.15321754e-02
      -6.01839535e-02 -3.35592334e-03 -9.32574421e-02 -2.27408204e-02
      2.42284127e-02 5.01699653e-03 2.14420985e-02 9.86145809e-02
      4.81818654e-02 -8.57943967e-02 -3.90960500e-02 -7.42182806e-02
      -1.71150491e-02 -4.49396530e-03 2.44436376e-02 1.30439978e-02
      1.27578288e-01 -2.99456585e-02 1.00463152e-01 2.22290363e-02
      1.07888924e-02 -7.53176725e-03 -6.35417877e-03 1.79149956e-02
      -5.85933868e-03 -1.02679739e-02 5.96972480e-02 2.71001807e-03
      -6.40440434e-02 -1.12482361e-01 -3.46780419e-02 -4.26937155e-02
      -1.36045674e-02 5.38304783e-02 1.52337719e-02 -6.14109822e-02
      6.98956773e-02 2.05047894e-02 1.33519061e-03 1.45713631e-02
      -6.58228472e-02 -2.49450896e-02 9.08636004e-02 1.23457141e-01
      1.68884695e-01 -1.22399786e-02 3.21136112e-03 5.84704466e-02
      6.70196896e-04 -6.06901105e-03 2.54883729e-02 -1.78601407e-03
      1.47284847e-02 -2.71004643e-02 -4.19888310e-02 -6.27804846e-02
      -4.00129855e-02 2.03739125e-02 -1.98566541e-02 7.65161589e-03
      1.31176319e-02 -1.20282890e-02 -2.88750120e-02 -3.99149507e-02
      -1.20548988e-02 -1.20020623e-03 1.40372748e-02 -4.02476974e-02
      2.87771523e-02 1.16811451e-02 6.26520440e-02 -8.10769759e-03
      -1.32479565e-02 1.15769602e-01 4.74231988e-02 -2.33021192e-03
      -1.21133029e-02 5.04104979e-03 4.64078458e-03 8.00254792e-02
      -3.58649865e-02 1.31970286e-01 -1.16851060e-02 -4.89071384e-02
      -1.72633864e-02 -2.26668827e-02 1.32763702e-02 -1.25691928e-02
      2.97436416e-02 1.01319179e-01 -8.97408649e-02 4.29570638e-02
      -2.28388328e-02 -5.09220958e-02 -7.27000087e-02 -1.21018477e-02
      -6.24665804e-02 -1.06616020e-02 -4.05170582e-02 -1.26333982e-02
      1.72815211e-02 3.07339709e-02 -1.41955595e-02 -2.97225527e-02
      -9.43328533e-03 -2.64697261e-02 6.75353110e-02 3.40012088e-02
      -8.43396336e-02 -5.50871640e-02 4.29961178e-03 -5.89216407e-03
      -3.02529968e-02 1.74896850e-04 -6.48252387e-03 1.27987992e-02
      -6.02342635e-02 -7.07222819e-02 -3.42088416e-02 3.09814010e-02
      -1.63955986e-02 1.61830317e-02 9.68130771e-03 -9.04282928e-02
      -7.47200102e-02 -4.22121249e-02 4.84155826e-02 -4.26144892e-04
      1.00393454e-02 -2.78714276e-03 1.02923892e-03 -1.82079393e-02
      -1.69372465e-02 -1.23154158e-02 3.72791067e-02 -4.74573001e-02
      8.05859566e-02 4.14241664e-02 1.36861643e-02 1.39743593e-02
      2.09214650e-02 3.77766299e-03 6.41407892e-02 -5.28101847e-02
      2.51039732e-02 8.88165608e-02 1.48697272e-01 3.03250663e-02
      -2.47503305e-03 5.49495220e-03 2.37773303e-02 7.68649653e-02
      2.33349279e-02 -1.16722740e-01 7.29581788e-02 8.73953700e-02
      4.42446321e-02 -2.01976649e-03 -2.17053071e-02 1.15752835e-02
      1.23175010e-01 -1.49745226e-01 1.05273249e-02 2.23710574e-02
      4.10853699e-02 5.10112848e-03 -4.28515440e-03 8.85823648e-03
      -1.00868074e-02 4.25281562e-02 4.45025824e-02 -1.41131461e-01
      1.05112623e-02 4.81777824e-03 -1.91826355e-02 -3.76316160e-02
      -4.94660959e-02 -2.92096138e-02 6.88399896e-02 -4.79569063e-02
      5.09417653e-02 1.41888514e-01 1.05904438e-01 -1.77609723e-03
      -8.64374191e-02 -4.43066396e-02 4.21616100e-02 3.72900479e-02
      -1.04190506e-01 2.44709719e-02 3.01509760e-02 2.34692320e-02
      1.15077617e-02 1.58457775e-02 2.51356047e-03 -9.65806004e-03
      -3.70039307e-02 -1.58402808e-02 5.11247441e-02 8.46669897e-02
      -6.82564778e-03 -3.72454450e-02 -1.76721271e-02 -2.55401321e-02
      1.06758969e-02 5.77729121e-02 -6.35200068e-02 -1.26917332e-01
      1.04192533e-01 9.02809203e-02 -5.33335358e-02 -8.18662494e-02
      -1.31621454e-02 -1.57738980e-02 -2.76866164e-02 -3.50318521e-01
      -5.42260222e-02 1.31629422e-01 5.68137057e-02 5.35958782e-02
      -2.36784369e-02 2.50396002e-02 6.72591478e-02 6.01311848e-02
      -3.00777167e-01 -2.68391124e-03 1.02743087e-02 -9.53825861e-02
      7.17211142e-02 -4.59792390e-02 -9.99107026e-03 1.24972850e-01
      6.96621090e-02 -6.22567572e-02 -5.90118989e-02 -3.71825062e-02
      -1.03626862e-01 -4.98722717e-02 -5.44888852e-03 -2.10686075e-03
      -1.91573205e-03 2.73987073e-02 -3.15317512e-02 -8.21418539e-02
      1.32858485e-01 8.11888054e-02 4.27329317e-02 -7.49370232e-02
      2.16218941e-02 3.08646243e-02 2.07222611e-01 1.25208255e-02
      1.07489657e-02 3.92963784e-03 -2.26811126e-01 -4.40579578e-02
      -1.63647503e-01 -1.32216727e-02 2.10094713e-02 1.52107626e-01
      5.48819229e-02 6.40611127e-02 -3.09238881e-02 -5.37875146e-02
      -5.07719209e-03 -4.40130010e-02 -3.72377299e-02 5.24073727e-02
      9.58018452e-02 1.52297556e-01 -1.64453164e-01 5.91235533e-02
      1.32218286e-01 5.75901791e-02 -4.95424643e-02 -2.40033641e-02
      3.85316089e-02 2.31812462e-01 2.12921407e-02 -4.51014191e-02
      -1.88763924e-02 5.35191931e-02 4.28059958e-02 -6.90868124e-02
      -6.22797310e-02 -4.14076261e-02 1.11764953e-01 8.06439593e-02
      -7.56257474e-02 -1.21241659e-02 1.34307491e-02 3.01614925e-02
      -3.65953892e-02 -3.16682234e-02 1.87126221e-04 1.06826507e-01
      6.81669489e-02 -6.28080815e-02 -1.43396687e-02 -6.96521774e-02
      -2.06929538e-02 -1.25081770e-05 -2.01012311e-03 1.87872089e-02
      8.97237286e-02 1.10954465e-02 -1.06631339e-01 -5.89490570e-02
      -1.35161534e-01 -8.67044330e-02 -8.32400545e-02 -1.66470855e-02
      -5.98161817e-02 1.21605165e-01 2.26687491e-02 6.99185729e-02
      -1.16911298e-02 -4.33750600e-02 -4.18553539e-02 -2.89130025e-02
      7.17758085e-05 -5.49934059e-02 -7.64804408e-02 2.19898950e-02
      1.22493848e-01 1.91913042e-02 -6.74358010e-02 -1.27004348e-02
      -3.18760611e-02 -1.83431245e-02 5.66225760e-02 8.42697993e-02
      9.32756513e-02 6.01544529e-02 1.88328084e-02 -2.02471986e-02
      -1.38288259e-03 -1.16839491e-01 -8.98926854e-02 9.97947901e-03
      3.79729457e-02 1.20023854e-01 1.22994967e-02 2.99480162e-03
      2.66398899e-02 -3.70140597e-02 -4.97757532e-02 -1.57130919e-02
      -7.10838810e-02 -5.27157150e-02 -1.54139763e-02 -1.26455694e-01
      -2.45180894e-02 -8.99994839e-03 1.15327323e-02 -2.59316582e-02
      -2.22856943e-02 1.32320877e-02 1.10814631e-01 1.04989082e-01
      3.22119854e-02 2.04854328e-02 3.90248857e-02 6.76355734e-02
      -4.33960743e-02 -5.85397473e-03 5.96511224e-03 1.74936846e-01
      -2.54430925e-03 -1.17278874e-01 3.70248258e-02 2.61821859e-02
      -8.40933155e-03 -1.41187962e-02 1.19990874e-02 -3.70655581e-02
      5.43889850e-02 -7.81946629e-02 1.04231276e-01 -1.49993375e-02
      -6.69441894e-02 -4.03683074e-02 -1.64163597e-02 7.93546811e-03
      -1.87441874e-02 1.52984625e-02 5.79358265e-02 -1.31416708e-01
      3.33309993e-02 9.05233808e-03 -3.57379615e-02 -1.26989698e-02
      1.48578584e-02 -5.22008650e-02 -2.86055226e-02 -4.79260087e-02
      -5.73029071e-02 2.78067938e-03 2.04127189e-02 -1.09975226e-02
      -2.22995933e-02 -7.76063977e-03 -2.24255528e-02 -1.27962576e-02
      -9.31660528e-04 -4.81071230e-03 -3.04537807e-02 1.26617227e-03
      -2.22179480e-02 -3.36484164e-02 -4.81401943e-03 -2.20001321e-02
      6.66321665e-02 7.81722888e-02 5.13421781e-02 7.38918185e-02
      6.71424344e-02 8.93810298e-03 2.85924245e-02 2.12131757e-02
      -1.12165757e-01 -7.77620031e-03 -2.80537307e-02 1.76385731e-01
      8.20729956e-02 2.41950359e-02 2.28392589e-03 -3.07484879e-03
      -1.91140398e-02 -5.66661656e-02 -3.38218734e-02 1.29877016e-01
      -9.73479003e-02 4.40450124e-02 4.19404311e-03 -1.20334479e-03
      -1.74287031e-03 1.23348627e-02 3.65899876e-03 1.06080934e-01
      3.88792274e-03 3.07417084e-02 5.84852286e-02 6.03614077e-02
      2.31211470e-03 2.32189484e-02 3.94236147e-02 -7.01158494e-02
      1.18326275e-02 -4.87273671e-02 -6.95935339e-02 3.85819972e-02
      -6.33526687e-03 5.48856659e-03 -1.68527209e-03 -1.49579383e-02
      -7.05929622e-02 -1.05691783e-01 -7.38507733e-02 4.53951349e-03
      -3.75392800e-03 3.84626575e-02 6.73093135e-03 -1.04874873e-03
      6.33146428e-03 -9.17568244e-03 1.57076132e-03 -4.14136983e-02
      -1.37797445e-01 -7.50229275e-03 1.01028569e-03 -2.68688658e-03
      -2.47029141e-02 -2.88653262e-02 -1.57355499e-02 9.45247859e-02
      -3.13113891e-02 3.43694724e-02 1.27994820e-01 5.38799018e-02
      -2.15490051e-02 -7.26982355e-02 -4.59952913e-02 1.79558191e-02
      -1.09240273e-03 -8.75162408e-02 1.52844355e-01 7.29995668e-02
      5.04241399e-02 1.79832093e-02 2.17939112e-02 8.96597374e-03
      -3.22924703e-02 -3.69942375e-02 7.47422427e-02 1.25732660e-01
      7.18468130e-02 -1.70018170e-02 -7.44956434e-02 -1.50332553e-02
      -3.29409651e-02 3.78631204e-02 1.07795134e-01 -5.39978817e-02
      4.60644886e-02 2.12193742e-01 1.40218660e-01 -7.06302449e-02
      -9.58255231e-02 -1.94113515e-02 9.82420403e-04 -1.93104297e-02
      -2.33895034e-01 -7.06430227e-02 5.02551310e-02 1.43429907e-02
      1.87014937e-02 1.54386349e-02 5.91857871e-03 -3.62624787e-02
      -7.70596266e-02 -5.67319989e-02 1.82021186e-01 7.41630718e-02
      2.34472845e-02 -4.29878496e-02 -1.00052170e-02 -5.29492497e-02
      -4.89660241e-02 -7.32963830e-02 -7.58997202e-02 2.65377462e-02
      1.49678066e-01 1.30462065e-01 -4.38086204e-02 -5.25859781e-02
      -5.52565642e-02 1.04474090e-02 -1.46138147e-01 -1.58521876e-01
      -7.02281520e-02 6.94370940e-02 4.32830416e-02 3.97915840e-02
      -2.81040166e-02 1.81308929e-02 1.06396601e-02 1.50491372e-01
      -9.85542219e-03 -8.80775750e-02 4.85608913e-02 -1.07655033e-01
      -6.08779117e-03 -9.67169553e-02 6.77479152e-03 1.34251118e-02
      1.57327279e-02 9.09030065e-03 2.89188494e-04 -5.00681112e-03
      -1.45053500e-02 1.38680870e-02 -2.45593805e-02 -2.60966700e-02
      5.66368289e-02 -5.11783287e-02 -1.78844389e-02 -1.38744533e-01
      5.30753732e-02 1.46225870e-01 9.63874385e-02 -1.57474186e-02
      -1.82178989e-02 6.60663769e-02 3.63194436e-01 5.06381430e-02
      -8.99223238e-02 5.44552132e-02 9.95440781e-02 9.51720327e-02
      -3.99348065e-02 -6.58671036e-02 -7.79134780e-02 1.71283767e-01
      -5.37715033e-02 -9.46405977e-02 -1.93686027e-03 2.94759572e-02
      3.76220718e-02 -2.18460243e-02 -2.19104886e-02 -1.26755787e-02
      7.05376565e-02 -2.42358949e-02 -2.40727961e-01 -1.11069456e-01
      3.08523998e-02 1.21569216e-01 6.24893010e-02 1.54520143e-02
      6.62317872e-02 2.29704916e-01 -3.29064042e-03 -9.09891948e-02
      -7.97382593e-02 1.60051659e-02 1.64546639e-01 1.21653818e-01
      -5.67381680e-02 -8.58662501e-02 9.59231034e-02 4.79901694e-02
      -7.99595490e-02 5.65599352e-02 6.15656935e-02 3.77440266e-02
      -2.63167676e-02 -6.63340418e-03 -8.13054070e-02 1.54428678e-02
      2.20814757e-02 9.07694921e-02 1.25811929e-02 -5.97073771e-02
      -3.13145816e-02 -3.22441757e-02 -1.32792899e-02 3.79520543e-02
      2.47434229e-02 -4.83971685e-02 -1.21808551e-01 -3.90780792e-02
      -5.12971915e-03 2.25520767e-02 -9.48504582e-02 -3.61278988e-02
      3.36343870e-02 -1.59865264e-02 3.64203635e-03 -1.53358176e-01
      -3.13458443e-02 1.23664737e-02 -9.21844877e-03 -8.49255268e-03
      1.16132777e-02 -9.33044106e-02 -7.37647787e-02 -1.11646242e-01
      -1.08941995e-01 -2.93927509e-02 -1.53436065e-02 -1.58515517e-02
      -3.48626263e-02 -2.79243886e-02 -4.69752550e-02 1.05372235e-01
      1.19646236e-01 -3.57478596e-02 1.07511375e-02 5.55022508e-02
      1.08923130e-01 -3.22074331e-02 5.05309477e-02 3.28941680e-02
      1.94985658e-01 5.33224177e-03 -1.01843312e-01 5.69470152e-02
      2.41750162e-02 8.74341559e-03 6.15455443e-03 3.15547399e-02
      -2.13030092e-02 8.40276480e-02 -7.31666237e-02 -4.51773498e-03
      6.03771619e-02 1.34023642e-02 1.72608271e-02 -5.55936946e-03
      -5.86345531e-02 -1.14751093e-01 9.16709751e-02 9.75965261e-02
      2.45017465e-02 6.71732277e-02 7.15856105e-02 6.51456267e-02
      -2.58635972e-02 5.28685078e-02 -5.63866161e-02 1.35229573e-01
      1.95483789e-01 -1.52007649e-02 5.61628453e-02 -1.03068780e-02
      7.17955315e-03 -2.76976172e-02 -1.56691601e-03 -2.25091856e-02
      9.68186036e-02 1.10318512e-01 -5.92778251e-02 -2.14273483e-02
      8.21947027e-03 -2.14402052e-03 -2.52023619e-03 1.44484155e-02
      -7.03729037e-03 5.02184555e-02 -1.42946579e-02 -7.69876242e-02
      9.15391147e-02 7.12396204e-02 2.35466007e-02 6.67863339e-02
      5.33523113e-02 -1.01728685e-01 -3.54248844e-02 -3.60173993e-02
      1.37131661e-01 7.98969641e-02 1.59387235e-02 9.23318136e-03
      2.35013850e-02 -8.02374072e-03 -5.52137531e-02 -7.61759803e-02
      3.74047048e-02 -8.47477019e-02 3.29413265e-02 2.83692423e-02
      1.59238745e-02 2.60782707e-02 3.87547724e-02 -1.96521659e-03
      1.24590233e-01 -4.47939383e-03 4.56053950e-02 1.37395024e-01
      9.71831828e-02 3.65624651e-02 6.08509406e-02 8.74847248e-02
      -3.37587856e-02 -1.63570102e-02 -1.16761155e-01 -5.21945618e-02
      6.00763373e-02 -2.09680689e-03 1.78846326e-02 1.41696418e-02
      -2.16253046e-02 -1.09722078e-01 -1.28546104e-01 -1.57425165e-01
      -5.27803190e-02 5.48557490e-02 3.88259511e-03 8.70324764e-03
      1.94970034e-02 1.27538145e-02 1.03040291e-02 1.28064781e-01
      1.83480427e-01 8.84697959e-02 1.48769066e-01 -5.55671169e-04
      -1.28215989e-02 -1.28253708e-02 -1.27907912e-03 3.87720093e-02
      1.64635718e-01 1.70554221e-01 4.98319604e-02 1.24782883e-01
      2.09771972e-02 1.82670576e-03 -2.29559932e-03 -1.31259551e-02
      -9.11606383e-03 7.49324709e-02 7.58753531e-03 1.69531658e-01
      5.55865727e-02 1.87804624e-02 7.03718746e-03 1.99183766e-02
      3.87818873e-04 -3.20258439e-02 -3.60507667e-02 5.12464941e-02
      1.06259674e-01 8.37871730e-02 8.66946112e-03 -4.74050455e-02
      1.02678454e-02 -2.82297935e-02 -5.47776418e-03 4.50930111e-02
      -3.61796468e-02 5.19797280e-02 1.55052722e-01 7.42336214e-02
      -4.28721830e-02 -4.81319949e-02 -9.48829949e-03 -2.18892563e-02
      -9.32840332e-02 -1.83039114e-01 -3.60466093e-02 5.83878271e-02
      -4.54831170e-03 1.95736010e-02 2.48435531e-02 2.31694407e-03
      -3.68297622e-02 -2.84122173e-02 -6.42891526e-02 2.86693573e-01
      1.48726925e-01 3.53228822e-02 -5.56309000e-02 -1.99612770e-02
      -7.44753182e-02 -5.88246435e-02 -7.25433677e-02 -6.79943636e-02
      1.43632993e-01 2.76965111e-01 1.70290455e-01 -6.49195760e-02
      -4.76229414e-02 -6.82635754e-02 -2.47862134e-02 -2.20310673e-01
      -1.30150899e-01 -2.05659550e-02 4.75106500e-02 -7.56073277e-04
      -8.89096351e-04 -8.03709682e-03 -7.91055802e-03 6.24929927e-03
      1.16452284e-01 8.95317364e-03 2.64548898e-01 1.09232463e-01
      1.08493060e-01 -8.55257211e-04 3.34584229e-02 -2.69587021e-02
      -1.25438720e-01 -1.45731404e-01 -1.55478716e-01 2.67495036e-01
      2.74786711e-01 1.63876876e-01 2.38146167e-02 -1.12062860e-02
      -4.00817208e-02 -8.78351256e-02 -3.41155618e-01 -1.78618565e-01</_>
    <_>
      -1.41053582e-02 5.51808663e-02 6.35967180e-02 2.37049107e-02
      4.10849825e-02 7.73220230e-03 -1.85239804e-03 1.74266323e-02
      -6.65335031e-03 2.68607512e-02 6.53352663e-02 4.79669385e-02
      1.38267688e-02 6.50775805e-02 -9.16392636e-03 -2.36899871e-02
      -2.51933783e-02 -3.92054580e-02 5.14268391e-02 3.61242034e-02
      -3.86666716e-03 -3.12313009e-02 1.26317590e-02 -1.00767547e-02
      -2.61798035e-02 -1.61284283e-02 -1.70744467e-03 -3.49031528e-03
      8.76037106e-02 -1.62969362e-02 -1.53091445e-03 -2.34030485e-02
      -5.26555963e-02 -2.14062985e-02 1.49525171e-02 -2.80950102e-03
      -9.91834700e-03 1.05629139e-01 -5.03319968e-03 1.40359970e-02
      -4.82065603e-02 -7.94128887e-03 -1.39387958e-02 4.10756171e-02
      -7.02694580e-02 6.49291798e-02 8.62257630e-02 -1.19466679e-02
      -5.10015674e-02 -1.79653037e-02 7.33381696e-03 5.32362703e-03
      2.96160989e-02 -1.81737784e-02 -5.46617843e-02 5.35811065e-03
      -6.57364726e-02 -4.53669988e-02 -7.32991798e-03 -3.50555666e-02
      -2.39254180e-02 1.14420168e-02 -1.99167263e-02 -7.38422573e-02
      -6.92370832e-02 -3.71949524e-02 -3.57794799e-02 -3.51871811e-02
      -2.47429423e-02 1.45651004e-03 9.88219678e-03 -5.53024560e-02
      1.56082064e-02 2.16401927e-02 -5.39612025e-03 -2.31955145e-02
      -2.37787236e-02 -5.20228501e-03 4.95559536e-03 -1.97920538e-02
      -7.00046569e-02 -1.84062924e-02 2.83290930e-02 -3.98150124e-02
      -5.85132986e-02 -2.32457649e-02 -3.58614735e-02 -4.34158035e-02
      -4.08355035e-02 -5.55291697e-02 9.22159404e-02 7.44347200e-02
      -1.67030506e-02 -4.53023389e-02 -2.18265392e-02 -5.88198975e-02
      -1.02081232e-01 -1.00996524e-01 -2.25430727e-02 1.13160267e-01
      6.60859421e-02 2.04471331e-02 3.02539673e-02 3.41693014e-02
      3.20860092e-03 -6.40673423e-03 -6.36832118e-02 2.81537417e-02
      -3.61402407e-02 2.38152482e-02 -4.67345417e-02 -6.33938387e-02
      -4.05303389e-02 -1.89559627e-02 -2.35887524e-02 3.13539989e-04
      -9.87868235e-02 6.47625327e-02 1.14609584e-01 -1.32848751e-02
      -5.75932711e-02 -3.65039594e-02 1.78488381e-02 5.12588012e-04
      -3.32348086e-02 3.31326276e-02 6.24256544e-02 2.91965008e-02
      1.00779925e-02 1.24415830e-02 4.45259660e-02 1.62121672e-02
      1.63236214e-03 -3.78094651e-02 4.72398773e-02 9.13198665e-03
      1.78142488e-02 -1.46736735e-02 -2.41816845e-02 -3.01407557e-02
      -3.05178352e-02 -2.80380286e-02 -2.44918056e-02 -7.11155012e-02
      2.53928769e-02 1.96814723e-02 -6.43767715e-02 -5.73607981e-02
      -4.19895649e-02 3.00628152e-02 1.19460225e-02 -5.64728901e-02
      -2.51376703e-02 5.55524006e-02 -5.10939844e-02 -5.06969765e-02
      3.10220174e-03 2.49839388e-02 6.29284466e-03 -9.93286353e-03
      3.26061249e-02 6.16167784e-02 8.55307728e-02 4.89646494e-02
      2.02040793e-03 -2.18235496e-02 -2.83999238e-02 -3.96874882e-02
      -4.18350250e-02 -1.29739478e-01 -3.87411974e-02 7.04855695e-02
      8.69904757e-02 3.39419395e-02 4.32498716e-02 1.93422176e-02
      3.65347392e-03 -2.46085934e-02 -1.03390016e-01 3.35688666e-02
      5.63470349e-02 3.24020418e-03 -5.61592309e-03 -4.23203735e-03
      2.30593644e-02 1.46216117e-02 1.61855817e-02 1.77959055e-02
      -1.78159156e-03 7.43066967e-02 3.84139307e-02 -3.40631269e-02
      -7.40848780e-02 -3.55907790e-02 -3.57599221e-02 -4.63203117e-02
      -6.83381483e-02 3.12493090e-02 9.38702282e-03 -2.73524355e-02
      -3.05804852e-02 -1.10120540e-02 7.37644359e-03 1.01816766e-02
      -1.59636140e-03 -6.00791574e-02 5.81448805e-03 -3.45003717e-02
      -5.99328540e-02 -3.22390124e-02 -5.60076348e-03 -1.58642363e-02
      4.12319694e-03 -1.98914087e-03 -5.52178361e-04 -6.40035272e-02
      6.77134022e-02 -2.26917826e-02 -6.37769625e-02 -5.05296886e-02
      -3.57933603e-02 -1.05639352e-02 -2.80229505e-02 4.92054317e-03
      4.34326604e-02 4.93786037e-02 -3.93929891e-02 -1.40683353e-01
      -3.16888914e-02 3.27060162e-03 -4.38080542e-02 -3.66851948e-02
      2.26530880e-02 -1.01997494e-03 5.46282455e-02 -5.71345426e-02
      -8.60947147e-02 -3.02519426e-02 -3.08742374e-02 -3.40441987e-02
      -3.07462681e-02 4.42757756e-02 1.69850849e-02 4.18948382e-02
      3.16130742e-02 1.10220090e-02 1.27813434e-02 2.16485970e-02
      2.20403373e-02 1.12067806e-02 3.83826206e-03 -6.97426545e-03
      -7.14020897e-03 3.39768790e-02 1.99209861e-02 1.11325248e-03
      2.32450068e-02 4.49568145e-02 5.22686392e-02 5.72169088e-02
      2.78741047e-02 -3.81707028e-02 -5.33458591e-02 -9.69135668e-03
      -1.39344679e-02 -2.92190518e-02 -6.93583209e-03 6.87050968e-02
      1.47113428e-01 1.39460037e-03 -1.59368254e-02 -3.08707561e-02
      2.99013715e-04 1.77934449e-02 1.46492580e-02 1.35892974e-02
      8.72292556e-03 -2.83419387e-03 -1.95899606e-02 -3.63546349e-02
      -2.83817365e-03 6.22541504e-03 3.03126741e-02 -1.92212090e-02
      8.95567983e-02 4.83339690e-02 -3.02839163e-03 -3.12837586e-02
      -4.38331105e-02 -8.63617435e-02 -4.60980833e-02 -2.98330933e-02
      -8.90591927e-03 3.15002985e-02 1.02348842e-01 6.40280619e-02
      -8.40647519e-02 8.17447677e-02 -2.06542984e-02 -1.83341317e-02
      8.87293275e-03 1.12116511e-03 -1.94688775e-02 -1.44317672e-02
      3.33299302e-02 5.76414838e-02 -1.88154925e-03 -9.48388800e-02
      -1.26037687e-01 -7.69904703e-02 -8.60950723e-02 -2.86832955e-02
      1.55168157e-02 6.04837015e-02 3.35343331e-02 -9.22714621e-02
      -1.52988046e-01 -9.25246999e-02 -6.60998654e-03 1.34559637e-02
      3.48664150e-02 4.36180979e-02 7.97557756e-02 -4.08210456e-02
      1.96059942e-02 8.74348581e-02 -1.26067796e-04 -9.00285970e-03
      -2.07044929e-02 -4.08874713e-02 -2.76121777e-02 2.01885048e-02
      1.18397847e-02 -3.73568200e-02 8.25700760e-02 -4.69595240e-03
      2.42038071e-03 -3.52617428e-02 -6.81178086e-03 -3.10512353e-03
      3.73250097e-02 -8.45654011e-02 4.22941558e-02 6.72035441e-02
      -5.23890415e-03 -2.40166318e-02 -1.29997944e-02 9.26240627e-03
      1.12506058e-02 1.99220553e-02 -2.02197805e-02 -3.76122929e-02
      3.47138382e-02 -5.29210307e-02 -6.22472093e-02 -7.40129966e-03
      -3.17802131e-02 -1.52748004e-02 1.96301956e-02 -8.63137469e-03
      -3.59582193e-02 -5.59175014e-02 -2.58292467e-03 -3.24074663e-02
      -2.54142322e-02 -1.44763198e-02 -1.12642266e-03 2.46981122e-02
      -4.23920751e-02 1.56803876e-02 1.82032846e-02 5.03900973e-03
      -7.12982565e-03 -2.07699202e-02 -2.08331342e-03 5.42532466e-03
      -1.26700848e-02 -6.88835904e-02 2.86082067e-02 7.35485479e-02
      -9.57739819e-03 -4.65464480e-02 1.10037448e-02 -1.15583446e-02
      1.56647600e-02 6.70354208e-03 2.41850875e-02 1.58470329e-02
      1.09278530e-01 3.76297929e-03 -3.11134737e-02 -2.76256520e-02
      -3.21486816e-02 -3.03485338e-02 4.49975021e-02 1.18036000e-02
      4.44367044e-02 5.99409500e-03 -1.79493707e-02 -2.63273274e-03
      -1.09857386e-02 -9.50046070e-03 -4.55380324e-03 3.31847332e-02
      6.34217635e-03 -3.44344997e-03 5.76226041e-02 -2.12906208e-02
      -3.08701023e-02 -1.70463882e-02 -4.11542424e-04 -4.14604787e-03
      1.02334854e-03 -6.11114502e-02 1.00967996e-01 1.25178978e-01
      -1.04987025e-02 -4.11426052e-02 -2.33351011e-02 4.14192751e-02
      2.80919541e-02 2.78203818e-03 6.13716617e-02 7.29992241e-02
      2.77573876e-02 -1.49188107e-02 1.28137041e-03 3.93343754e-02
      1.77839436e-02 7.48642860e-03 -6.46658847e-03 7.53118545e-02
      -1.84318759e-02 4.82809264e-03 -1.85698029e-02 -1.72518361e-02
      -2.70909425e-02 -1.83511935e-02 -9.72677115e-03 -1.62334871e-02
      -9.04621333e-02 9.31083225e-03 1.85040124e-02 -7.16238245e-02
      -6.78226426e-02 -3.49391438e-02 4.07853536e-02 7.79175619e-03
      -4.82323207e-02 -2.52264068e-02 6.95791021e-02 -5.13339527e-02
      -5.11630625e-02 1.81006361e-02 4.08388413e-02 7.22376537e-03
      -1.56205632e-02 3.71574201e-02 7.54932538e-02 7.47851934e-03
      -1.70395756e-03 -1.71313416e-02 3.88420536e-04 -1.83237121e-02
      -2.85547450e-02 -2.33459566e-02 -2.98358500e-04 -7.03429580e-02
      1.81327462e-02 2.06167554e-03 -4.66774292e-02 -1.47897666e-02
      -5.57922460e-02 -9.69050638e-03 -2.42960323e-02 4.71927375e-02
      5.29610291e-02 2.95763351e-02 -4.52108905e-02 -2.85093132e-02
      6.92953542e-03 5.67080174e-03 -1.37478067e-02 -1.47151500e-02
      3.48515846e-02 3.59114148e-02 7.31000900e-02 4.03904356e-02
      -2.15489119e-02 -7.17774630e-02 -3.15502286e-02 -1.37053188e-02
      -2.46837307e-02 -3.27452607e-02 4.06705700e-02 4.11592126e-02
      -1.59098171e-02 -1.64647773e-02 -3.16376355e-03 3.80113944e-02
      2.09386405e-02 1.16035724e-02 -4.14857501e-03 6.60547391e-02
      -6.60665240e-03 -3.66166942e-02 -9.60064214e-03 2.09494843e-03
      -5.47225412e-04 1.51755521e-02 7.32331397e-03 3.23273949e-02
      4.47039073e-03 5.81293404e-02 -2.29949001e-02 -4.96071428e-02
      -4.95615192e-02 -3.06251328e-02 -6.99819671e-03 -3.78560275e-02
      -3.55623174e-03 1.59971602e-02 5.18831238e-02 -4.17832425e-03
      -9.78887379e-02 -1.19946627e-02 2.48557366e-02 -2.55923215e-02
      -4.79625836e-02 1.20980833e-02 4.69088880e-03 7.23837465e-02
      -5.15412837e-02 -6.37879893e-02 -3.60400602e-02 -2.18828563e-02
      -2.76722573e-02 -1.91511530e-02 8.99983644e-02 6.36269227e-02
      3.49166542e-02 -1.93107314e-02 -2.01584920e-02 -2.90437508e-02
      -3.48876640e-02 -2.89485026e-02 -3.02095599e-02 2.19752658e-02
      3.55109312e-02 3.41372415e-02 -7.97144249e-02 -5.93434721e-02
      1.40364552e-02 -2.61520073e-02 -4.49926853e-02 -7.04450235e-02
      -3.65309604e-02 -1.87020097e-02 -4.64157648e-02 -6.13775589e-02
      -4.70800027e-02 -2.87102032e-02 -1.96811464e-02 -1.72184519e-02
      -1.53085981e-02 3.24269272e-02 3.67235485e-03 -1.14583625e-02
      -2.90481225e-02 2.12318357e-03 1.21431993e-02 1.41573092e-02
      6.64756633e-03 7.46082631e-04 1.66005583e-03 -2.03115307e-02
      3.16740898e-03 -1.13753211e-02 -7.50369160e-03 1.74270459e-02
      9.04048048e-03 6.93866760e-02 5.56566305e-02 8.09955131e-03
      -3.35671529e-02 -2.32169870e-02 -4.40957360e-02 -2.45647449e-02
      -1.56158591e-02 9.24265664e-03 4.50011790e-02 8.43176171e-02
      2.36863606e-02 -6.67485222e-02 8.86426121e-02 -6.90623233e-03
      -2.04042587e-02 8.71182606e-03 5.93645731e-04 -2.20897421e-02
      -1.57990474e-02 4.69969809e-02 6.42666295e-02 5.27707823e-02
      -4.74013425e-02 -1.08114764e-01 -6.45562708e-02 -4.40589413e-02
      -2.74128690e-02 3.75155546e-02 9.25334170e-02 8.42610076e-02
      -5.54743335e-02 -1.57018557e-01 -4.45529819e-02 1.95021741e-02
      3.45624685e-02 7.42695928e-02 6.60412386e-02 1.09068759e-01
      4.84336168e-03 3.03189773e-02 -5.15897758e-03 -6.64857496e-03
      4.29726613e-04 -1.08162509e-02 -1.60823837e-02 -6.51123887e-03
      5.05226888e-02 4.86124121e-02 3.08423620e-02 -7.80571550e-02
      -2.52334755e-02 -5.99871576e-02 -8.27596057e-03 -2.76974682e-03
      3.06277275e-02 7.48791769e-02 -8.70258547e-03 -6.25617802e-02
      -2.78100576e-02 7.01669697e-03 1.74854565e-02 1.66379511e-02
      3.90536971e-02 3.71255577e-02 3.30508202e-02 -6.53698072e-02
      -1.22514656e-02 2.98026074e-02 -3.11370939e-02 -4.83242869e-02
      -7.37315184e-03 -1.31680705e-02 -1.90634523e-02 4.61840350e-03
      -1.86317100e-03 -7.79297296e-03 -5.76611832e-02 -1.37796691e-02
      -3.35651673e-02 -3.73670384e-02 -2.97417957e-02 -5.82802668e-03
      1.84069779e-02 4.02251491e-03 2.92905960e-02 6.70207152e-03
      2.37154192e-03 4.94076824e-03 -1.72133259e-02 -9.06252675e-03
      1.11144735e-04 -1.00248633e-02 -4.87434715e-02 2.97887959e-02
      9.11688581e-02 7.05274614e-03 -5.49269170e-02 3.32029350e-03
      -2.10752860e-02 -2.34050546e-02 4.45891311e-03 -6.56859064e-03
      2.24610809e-02 9.11207497e-02 1.30408313e-04 -3.03020291e-02
      -2.33908966e-02 -4.79676090e-02 -4.18752953e-02 4.43685241e-03
      -2.82788984e-02 2.99529508e-02 5.24125202e-03 -1.50930649e-02
      -5.00012236e-03 -1.54763004e-02 -9.97570902e-03 -8.50879494e-03
      1.76759101e-02 -2.92182248e-02 1.31225167e-02 5.99338487e-02
      4.07967195e-02 -6.22609863e-03 -1.93887309e-03 -2.02615391e-02
      -2.76570730e-02 2.46943589e-02 -3.91888758e-03 -2.15929728e-02
      2.63123456e-02 4.81670015e-02 8.02918151e-02 5.89758791e-02
      -2.42262818e-02 8.41394253e-03 4.60011698e-03 -1.11817740e-01
      -2.59822141e-02 3.66163743e-03 3.04396893e-03 2.10673641e-02
      1.53148836e-02 8.53598685e-05 -8.64700694e-03 -1.53894415e-02
      -7.76232928e-02 1.98306069e-02 2.13314081e-03 -1.71858892e-02
      -1.57676041e-02 -2.50720605e-02 -2.04288997e-02 -3.56452866e-03
      -6.22070488e-03 -7.14010298e-02 -1.33664990e-02 4.95702075e-03
      -5.48132509e-02 -5.25571257e-02 -4.63491455e-02 7.54576596e-03
      -1.45494901e-02 -4.91088778e-02 -3.68322209e-02 7.75674433e-02
      -2.25211643e-02 -2.55244467e-02 2.27825157e-02 2.02990975e-02
      -9.23112384e-04 -1.88221149e-02 3.02381553e-02 6.90272450e-02
      9.66697559e-03 -6.27705688e-03 -1.69128571e-02 -1.71920261e-03
      -2.78858710e-02 -2.23023854e-02 -2.11846549e-02 2.43693846e-03
      -8.47768858e-02 3.98494257e-03 2.28164643e-02 -2.11589248e-03
      -2.03549815e-03 -5.61080948e-02 -1.24622686e-02 -1.99353639e-02
      5.31361960e-02 3.76071706e-02 6.69006035e-02 -3.11770886e-02
      -2.96947528e-02 8.49934015e-03 -3.48470453e-03 -1.88367646e-02
      -1.50362747e-02 5.29741943e-02 5.99059574e-02 -8.05750396e-03
      1.51570635e-02 -4.27165441e-03 1.76169127e-02 3.39099998e-03
      -7.09955255e-03 -1.92059409e-02 -3.33654112e-04 -7.48145208e-02
      -5.56153711e-03 -3.70530002e-02 -2.66304240e-02 -2.52579320e-02
      -1.46721192e-02 1.33579290e-02 -3.63860577e-02 8.14387761e-03
      -1.64072588e-02 2.99439654e-02 -8.38554502e-02 -4.78843413e-02
      9.39364824e-03 8.91216286e-03 -1.11115281e-03 -1.04342857e-02
      2.34255772e-02 6.84368536e-02 7.73785412e-02 1.25650205e-02
      1.53542748e-02 -5.63078560e-03 -2.30546650e-02 -3.11691174e-03
      -2.11608950e-02 8.23201798e-03 4.06888947e-02 7.46662170e-02
      2.85600740e-02 -3.10215782e-02 3.72612625e-02 4.01554331e-02
      -1.54670151e-02 -4.03631330e-02 4.25232276e-02 6.36306107e-02
      1.11516073e-01 -1.33574642e-02 -2.83275153e-02 -2.48541869e-02
      -1.55695593e-02 -1.73857305e-02 -6.16375636e-03 9.08155516e-02
      1.03793792e-01 4.41661403e-02 -1.55400578e-02 -2.24003252e-02
      -4.16660085e-02 -4.62094992e-02 -3.02539319e-02 -2.11611651e-02
      3.74461859e-02 4.29644212e-02 -8.15466512e-03 -9.20788348e-02
      -4.35613059e-02 2.27036402e-02 -2.45122015e-02 -2.81068776e-02
      -3.39953341e-02 -4.42208676e-03 -1.93284787e-02 -4.67683859e-02
      -7.00089633e-02 -3.68603766e-02 -1.78787652e-02 -5.08080586e-04
      -8.92056711e-03 -8.73873569e-03 3.46708558e-02 1.66716408e-02
      1.00662746e-02 -5.37019484e-02 -3.73826735e-02 -1.09855533e-02
      -2.11075656e-02 -2.61441898e-03 -1.60342455e-02 5.00434963e-03
      4.61833626e-02 -8.51645246e-02 -1.18778542e-01 -1.01993836e-01
      -1.34279579e-02 3.15647610e-02 -2.77011748e-02 -3.42275612e-02
      4.07776944e-02 2.93795373e-02 -2.35793237e-02 -3.66657488e-02
      -5.31841032e-02 -7.12587265e-03 -2.73638521e-03 -2.63085077e-03
      1.01871789e-02 5.84603697e-02 3.08480561e-02 7.97085017e-02
      -5.75728389e-03 -1.06555372e-02 9.76833887e-03 4.28846618e-03
      -1.51554942e-02 -8.49764887e-03 3.39704156e-02 6.09897710e-02
      7.49285668e-02 -5.12874015e-02 -7.59015530e-02 -7.49104545e-02
      -8.60227272e-02 -5.57805672e-02 2.25637984e-02 1.14344351e-01
      1.07519493e-01 -3.29824761e-02 -1.09878458e-01 -2.79489830e-02
      3.76498955e-03 1.47078456e-02 4.34770100e-02 5.25163636e-02
      1.06238738e-01 2.16270387e-02 3.68224271e-03 -3.10523156e-02
      -9.14250407e-03 1.63201941e-03 -1.47729565e-03 -6.72416389e-03
      -6.69803470e-03 5.29479459e-02 2.87399814e-02 2.64220610e-02
      -2.02940386e-02 1.68613046e-02 -5.12650460e-02 -9.51419398e-03
      -1.14077581e-02 2.58518122e-02 7.28676319e-02 -2.16027852e-02
      -5.12623973e-02 -3.16508953e-03 4.43945602e-02 1.77510679e-02
      9.87001974e-03 2.67121904e-02 6.04351610e-02 2.90530212e-02
      -4.71504517e-02 -5.71355745e-02 -7.47524127e-02 -2.78422721e-02
      -1.02178641e-02 -4.52572946e-03 -1.25460075e-02 6.13108743e-03
      6.85251430e-02 3.72692458e-02 -1.26623623e-02 5.42799421e-02
      4.80801947e-02 5.12111234e-03 -3.59174646e-02 -3.34478430e-02
      -1.40186865e-02 3.29086520e-02 -4.94295657e-02 -4.72038575e-02
      6.68159723e-02 7.43506700e-02 2.72773225e-02 -2.43364144e-02
      -2.83356421e-02 -8.70048534e-03 3.78590892e-03 -3.63002457e-02
      1.79193188e-02 6.94021657e-02 -1.20586099e-03 -3.82493697e-02
      3.55107513e-05 -2.02742778e-02 -1.88553873e-02 1.10959332e-03
      -7.53238285e-03 -1.04773017e-02 6.83471784e-02 -2.91896780e-04
      -3.65583971e-02 -2.15571821e-02 -4.12811562e-02 -3.55277732e-02
      -3.00669279e-02 -3.84156518e-02 2.71307155e-02 3.36142117e-03
      -2.75278892e-02 -1.63132753e-02 -2.24605538e-02 -1.03575885e-02
      -6.52579777e-03 7.42179248e-03 -3.32802720e-02 1.87472720e-02
      7.35841393e-02 3.97308581e-02 -1.01444330e-02 -9.14232060e-03
      -1.60841160e-02 -2.70015784e-02 8.20263475e-03 -1.70163382e-02
      -1.38803553e-02 3.57297659e-02 1.74343828e-02 6.22688457e-02
      5.49058802e-02 -2.91838069e-02 -5.98295033e-03 -4.86917095e-03
      -9.97100323e-02 -5.08852936e-02 -1.26398979e-02 -6.34980295e-03
      1.58091523e-02 7.58854393e-03 -3.65956151e-03 -8.92466120e-03
      -1.60903558e-02 -8.20275322e-02 8.71708244e-02 1.08253531e-01
      1.41185718e-02 -2.74130907e-02 -4.48005646e-02 6.00446202e-03
      2.80025918e-02 3.94958071e-03 -2.45887302e-02 4.49161604e-02
      1.19304314e-01 -1.10665662e-03 1.59013231e-04 -2.52255928e-02
      -4.72636260e-02 -1.14068678e-02 6.17871108e-03 -2.29978878e-02
      -4.19425480e-02 -2.90111750e-02 4.89899796e-03 3.42459157e-02
      1.04760677e-02 -1.19234889e-03 -9.30621289e-03 4.07979358e-03
      -2.36694654e-03 4.45330180e-02 2.68915314e-02 3.73112550e-03
      -6.85085263e-03 -2.08529979e-02 -1.03668300e-02 -5.32452716e-03
      1.06529314e-02 -3.76115553e-02 4.96614240e-02 4.28367369e-02
      1.44236200e-02 -1.61061622e-02 -5.18743508e-02 -3.03782597e-02
      -6.89387321e-03 7.19890594e-02 7.34065622e-02 6.14380054e-02
      -2.13986952e-02 -1.91379804e-02 7.16807600e-03 -7.12436438e-03
      -1.32857403e-02 -7.42993318e-03 4.82937396e-02 5.93964159e-02
      -5.26270606e-02 7.16554513e-03 -1.84459833e-03 1.85102932e-02
      9.67837591e-03 -2.93159112e-03 -6.55332720e-03 -8.46157782e-03
      -8.07507038e-02 -4.26512137e-02 -4.28340398e-02 -3.29237692e-02
      1.48676371e-03 -6.77863788e-03 2.35880408e-02 -6.07478758e-03
      1.61582250e-02 4.25758865e-03 -1.50711806e-02 -1.14619523e-01
      -5.36802672e-02 2.26114839e-02 2.62905341e-02 8.44881404e-03
      -6.43222267e-03 2.85329055e-02 5.56184649e-02 -1.02895824e-02
      5.14219282e-03 5.80951851e-03 2.53499690e-02 7.61446077e-03
      -4.13335720e-03 -1.12901405e-02 -5.44563588e-03 2.63316766e-03
      -5.57855107e-02 -1.33720860e-01 -3.37812044e-02 7.87099600e-02
      3.05715874e-02 -2.58196425e-03 9.22830775e-03 5.44455200e-02
      -6.70385954e-04 -1.53727606e-02 -1.59966335e-01 -5.74746095e-02
      3.33147980e-02 1.93828624e-02 2.01740977e-03 2.99768848e-03
      4.20471877e-02 9.04848576e-02 4.15507667e-02 -1.87219195e-02
      -2.29548141e-02 -2.94502117e-02 -4.94637378e-02 -2.03331839e-02
      -8.52105767e-03 3.62731777e-02 4.76971567e-02 -2.30007395e-02
      -7.21431822e-02 -4.54152115e-02 1.69237982e-02 -1.56227788e-02
      -3.50522399e-02 -3.66379246e-02 5.25577040e-03 -1.48812411e-02
      -2.53637191e-02 -3.67266238e-02 -1.36403814e-02 -7.27087259e-03
      2.46272213e-03 -8.54803529e-03 -6.70378003e-03 1.99168455e-02
      2.01116093e-02 -1.59737039e-02 -8.40722769e-02 -3.98071483e-02
      3.13764601e-03 -1.09669995e-02 7.09584332e-04 -1.08434977e-02
      9.05041583e-03 3.93314064e-02 -9.01290625e-02 -1.26306325e-01
      -6.08189926e-02 -1.09578371e-02 3.21737565e-02 -2.18879394e-02
      -2.81930529e-02 3.96805964e-02 5.32204919e-02 -4.79786610e-03
      -3.62626202e-02 -1.92263126e-02 -1.01846401e-02 -5.29073970e-03
      -1.09427525e-02 8.83171614e-03 6.90251067e-02 4.22750115e-02
      -1.22972643e-02 -1.23334140e-01 -4.14386652e-02 3.65545377e-02
      1.28735350e-02 -2.74642534e-03 6.81909616e-04 3.06240600e-02
      9.42157507e-02 -9.96456202e-03 -8.77461135e-02 -4.79776300e-02
      4.12725471e-02 2.31926776e-02 -1.86075773e-02 -4.52253595e-02
      1.30739436e-02 2.21329909e-02 5.30321188e-02 -3.82160321e-02
      -2.84158997e-02 -1.10643245e-02 -2.47752341e-03 -2.35790610e-02
      -1.63715631e-02 2.88323537e-02 -4.88702161e-03 -1.95722152e-02
      -1.64250415e-02 -1.07495133e-02 9.85493697e-03 1.59575623e-02
      6.79865852e-03 9.06700327e-04 3.85940187e-02 2.31022350e-02
      2.68426426e-02 -2.07077758e-03 1.74716823e-02 -4.86083794e-03
      1.94916613e-02 -3.79129575e-04 4.08199616e-02 4.41438518e-02
      -1.31874802e-02 -2.93753110e-02 1.71755590e-02 3.69602628e-02
      1.66458488e-02 8.49728100e-03 1.90992504e-02 6.14810586e-02
      2.12535057e-02 -3.11755259e-02 -2.67984644e-02 -5.98763041e-02
      -2.30571479e-02 -8.06785421e-04 1.09573388e-02 -5.65344701e-03
      1.47166718e-02 7.75936395e-02 5.66896945e-02 1.94765050e-02
      4.10222523e-02 4.05595526e-02 2.72142002e-03 -1.08057102e-02
      7.75262993e-03 6.04448467e-03 4.12533768e-02 -2.77332347e-02
      -4.02216762e-02 8.31601769e-02 9.14586112e-02 2.88270600e-02
      -2.51036286e-02 -2.22205631e-02 1.37527231e-02 2.72150096e-02
      -3.96428108e-02 5.94625324e-02 -3.25949676e-02 -6.30524009e-03
      1.76803640e-03 5.86912688e-03 -1.57935154e-02 -1.32522518e-02
      4.17916253e-02 4.01092619e-02 -4.99957651e-02 -3.52165885e-02
      -7.18810484e-02 -5.85036427e-02 -3.43348719e-02 -4.74775955e-02
      -1.67216416e-02 5.36185876e-02 -7.28714764e-02 -5.40063940e-02
      -2.60870010e-02 2.46175602e-02 -1.97565332e-02 -5.60556166e-02
      -4.03879508e-02 -2.61289794e-02 -8.18502996e-03 -5.44307604e-02
      2.07242258e-02 6.53886199e-02 2.58183535e-02 -4.32003895e-03
      -1.61437131e-02 -8.16644449e-03 -1.77918188e-02 3.85099999e-03
      -5.43740764e-03 3.97805236e-02 4.97435639e-03 1.41887255e-02
      3.88073958e-02 1.57652907e-02 -1.97307579e-02 4.15410986e-03
      1.77551825e-02 -6.84057251e-02 -1.33473026e-02 -1.31388251e-02
      -3.43690231e-03 3.83239309e-03 1.66826334e-03 -6.02333853e-03
      -8.08203313e-03 -4.24277503e-03 -3.81639041e-02 6.26603365e-02
      1.12636469e-01 2.67106984e-02 -2.90317889e-02 -5.29066510e-02
      -9.89306066e-03 2.00539958e-02 5.38302260e-03 -2.68713534e-02
      2.96521815e-03 1.13663658e-01 2.03413400e-03 -2.50250045e-02
      -3.85439843e-02 -7.21113309e-02 -3.90074514e-02 1.49370292e-02
      2.21979953e-02 -9.16281641e-02 -4.27138321e-02 -6.47827610e-03
      1.71946790e-02 7.06450024e-04 -5.12220198e-03 -1.17305852e-02
      2.85576517e-03 -2.26921812e-02 1.39127476e-02 3.07681113e-02
      1.95830688e-02 -4.81288834e-03 -2.30009984e-02 -2.08872668e-02
      -1.24068288e-02 5.26943207e-02 2.90768892e-02 5.12964604e-03
      -1.19644981e-02 1.11289481e-02 -1.53747611e-02 -6.20916253e-03
      -1.99649874e-02 -5.52080609e-02 -1.37627777e-03 -6.87177032e-02
      -3.71332541e-02 -2.88944840e-02 -1.44099700e-03 -2.74769263e-03
      2.78781680e-03 -5.03211701e-03 2.42041610e-03 8.53251666e-03
      -3.15557281e-03 -1.97054092e-02 1.01731867e-02 5.64894266e-03
      1.11159375e-02 6.28672540e-03 -2.42537959e-03 -2.67025735e-03
      -7.36243732e-04 -4.70012054e-02 6.26404188e-04 -6.12540208e-02
      -4.60016094e-02 4.01404221e-03 -9.34342039e-04 2.10752934e-02
      -7.51780905e-03 1.73623413e-02 -1.90913305e-02 -1.15893967e-02
      -8.47484991e-02 -4.38534133e-02 9.74828936e-03 1.26438485e-02
      3.88784078e-03 -7.67277507e-03 1.42338155e-02 4.41498347e-02
      -5.84189780e-02 -1.00596696e-02 -5.29902382e-03 1.57830119e-02
      1.02034882e-02 -3.52609786e-03 -1.17801614e-02 8.31548683e-03
      2.76382873e-03 -2.78537292e-02 -1.39691725e-01 -4.84825745e-02
      7.77778253e-02 3.82743478e-02 -4.25550435e-03 1.82467164e-03
      5.47785722e-02 6.67024078e-03 -6.72597438e-04 -1.48798347e-01
      -3.21948342e-02 3.04649603e-02 2.07243990e-02 -4.81042109e-04
      -2.40939623e-03 3.67115177e-02 9.99628231e-02 -1.04870889e-02
      -1.59078315e-02 9.48317535e-03 -5.15640294e-03 6.28524274e-03
      2.69166660e-03 -6.96523394e-03 1.76418212e-03 1.10207992e-02
      -4.91964333e-02 -7.82526359e-02 1.20253405e-02 2.28179675e-02
      2.03241222e-02 2.62505375e-03 3.43276747e-02 6.09165356e-02
      9.23978444e-03 4.71817255e-02 -7.14416802e-02 2.54007662e-03
      9.87061579e-03 1.15692196e-02 2.84293923e-03 -7.21279671e-03
      2.47862581e-02 7.77954087e-02 -1.17248343e-02 -7.24447593e-02
      -3.73596996e-02 1.13537395e-02 7.03006377e-03 4.65312460e-03
      -5.91528649e-03 6.70654746e-03 3.37313227e-02 -9.84795615e-02
      -1.40184000e-01 -5.28642535e-02 3.71070881e-03 3.32023501e-02
      -1.30745173e-02 -3.34662548e-03 6.00727834e-02 3.08690965e-02
      4.15873155e-03 -3.64819467e-02 -2.27480754e-02 -8.19590595e-03
      -7.82786496e-03 -1.53912799e-02 1.10310996e-02 5.54786697e-02
      2.65805349e-02 -3.43987159e-02 -1.56393021e-01 -6.41053841e-02
      3.83636504e-02 1.84839237e-02 -9.03028063e-04 -1.86396297e-04
      3.24923471e-02 8.42765346e-02 -7.17579713e-03 -1.16506450e-01
      -4.73453626e-02 3.59467976e-02 2.41747219e-02 -2.30980385e-02
      -3.72605398e-02 1.10681187e-02 4.15342934e-02 3.68025228e-02
      -6.67077899e-02 -3.11518684e-02 -1.24742715e-02 -3.47204739e-03
      -3.26499008e-02 -2.64707599e-02 3.04610059e-02 -1.99553542e-04
      -7.76007539e-04 -5.71184158e-02 -1.26705933e-02 1.20652644e-02
      1.10625615e-02 4.47782828e-03 1.01789786e-03 2.30604038e-02
      6.79551139e-02 6.78551570e-02 -2.47221943e-02 -3.21857333e-02
      5.81502281e-02 5.94756939e-02 -1.92224793e-02 -3.86786424e-02
      2.17923392e-02 6.64187968e-02 4.51271534e-02 -5.48074134e-02
      -3.09385061e-02 9.44907218e-03 4.93138237e-03 -2.29556430e-02
      -4.54736724e-02 1.16583901e-02 3.66635770e-02 -1.04471855e-02
      -4.47777323e-02 -1.93953216e-02 5.90834534e-03 1.72407087e-02
      4.10965364e-03 1.75926592e-02 5.41919991e-02 4.17804755e-02
      3.91701460e-02 6.07949980e-02 4.95102517e-02 -4.54005133e-03
      -2.85546575e-02 -1.20288143e-02 3.59228812e-03 4.89425436e-02
      7.92229827e-03 -3.17677110e-02 5.90575635e-02 7.13703930e-02
      1.32010886e-02 -2.59476565e-02 -1.86303537e-02 5.41514996e-03
      2.49530859e-02 -1.77523121e-02 4.52661552e-02 -6.15568198e-02
      -6.15102472e-04 1.44314347e-02 2.00830828e-02 -1.12326397e-02
      -1.87325850e-02 2.51956210e-02 2.47605443e-02 -3.50485630e-02
      -5.42470030e-02 -1.00612402e-01 -4.49639261e-02 -5.17944284e-02
      -5.08293211e-02 -2.05752347e-02 5.24889380e-02 -4.75121625e-02
      -6.03207871e-02 -1.90900136e-02 2.39841249e-02 -3.57908383e-02
      -7.95637518e-02 -4.95820679e-02 -2.11792141e-02 6.35390898e-05
      -5.01948334e-02 5.04949391e-02 -4.68978435e-02 -5.60912210e-03
      2.43020952e-02 1.75845809e-02 -1.33584579e-02 -4.18435298e-02
      8.44703615e-03 4.53022346e-02 3.90460789e-02 2.17788871e-02
      -1.04945183e-01 -4.76795360e-02 -2.82457694e-02 -3.87210511e-02
      -2.81214956e-02 6.14337921e-02 1.22699980e-02 1.51843624e-02
      8.90328884e-02 -1.65086966e-02 -3.97433303e-02 -7.10569993e-02
      -4.07747440e-02 -9.71014891e-03 6.05929829e-02 2.23977733e-02
      7.07904249e-02 9.53393579e-02 5.39659820e-02 -1.93418413e-02
      -4.30207737e-02 -1.62554998e-02 1.70768611e-02 1.09685650e-02
      -9.17512737e-03 2.73566749e-02 1.08318724e-01 2.25441735e-02
      -2.77706068e-02 -2.50686426e-02 -6.59238994e-02 -3.18003483e-02
      2.16363594e-02 1.69018786e-02 -6.33645430e-02 -2.45613437e-02
      -9.64540709e-03 8.75924807e-03 6.41831523e-03 1.43047445e-03
      6.86771609e-03 9.29577183e-03 -2.75358409e-02 3.84618677e-02
      7.41073340e-02 5.49925417e-02 1.03206735e-03 -2.03882605e-02
      -2.38291398e-02 -2.49635726e-02 6.10801913e-02 1.93149932e-02
      9.45058838e-03 1.38315624e-02 4.00025360e-02 -1.35801444e-02
      3.77389900e-02 5.78518584e-03 -1.73955746e-02 1.12635046e-02
      -5.48516475e-02 -7.48265684e-02 -3.01064942e-02 2.60580680e-03
      -1.90197991e-03 1.75312683e-02 4.35021380e-03 1.59018058e-02
      1.87044963e-02 -3.22073735e-02 9.55109857e-03 3.41635197e-02
      2.39764825e-02 9.21200216e-03 -7.98982568e-03 -6.53667096e-03
      -1.89192907e-03 2.26536039e-02 -5.09000476e-03 1.64451469e-02
      3.81212607e-02 5.41660152e-02 2.08205972e-02 2.75799772e-03
      -1.00653572e-03 7.78854778e-03 2.75147129e-02 -2.68564932e-02
      -3.83439325e-02 -6.61709299e-03 5.96101722e-03 6.02370128e-03
      4.07276442e-03 6.12802804e-03 1.25206867e-02 4.09943350e-02
      1.75634790e-02 -7.31416866e-02 -2.45788917e-02 -1.72594283e-02
      -7.57801998e-03 1.61260052e-03 -4.04913304e-03 -2.57638935e-03
      1.91460003e-03 -3.72527577e-02 -5.59392124e-02 -1.23426504e-01
      -8.44739527e-02 3.30663733e-02 1.07623124e-03 -9.48775467e-03
      1.89379212e-02 5.19057773e-02 -1.97712928e-02 2.20500175e-02
      -1.24480575e-01 -4.57434952e-02 1.13684153e-02 5.15913684e-03
      -3.04326485e-03 8.16556276e-05 3.55070829e-02 1.12807326e-01
      -4.95136380e-02 -3.52847241e-02 -1.39717211e-03 -2.08273176e-02
      -6.46153325e-03 -4.79326234e-04 -3.23946675e-04 2.03803536e-02
      -1.60648972e-02 -6.75796568e-02 -8.28580856e-02 -7.74284406e-03
      1.10833682e-02 2.30499841e-02 2.89435079e-03 3.67775597e-02
      7.77288750e-02 -3.68857384e-02 2.93201786e-02 -6.64499253e-02
      -9.16088000e-03 4.80852881e-03 1.21744629e-02 3.23607121e-03
      -7.29368068e-03 3.45244259e-02 8.08871984e-02 -2.75417026e-02
      -8.29934888e-03 1.09142540e-02 3.38060549e-03 -1.36763938e-02
      -1.53806936e-02 6.68945396e-03 3.92172337e-02 1.48521429e-02
      4.70104208e-03 -4.43370081e-02 1.70266535e-02 9.26024560e-03
      2.78146416e-02 1.02215800e-02 9.11664404e-03 8.84367451e-02
      6.25405237e-02 1.43552301e-02 -2.17835195e-02 -2.20659934e-03
      1.07022012e-02 2.62120478e-02 1.17781423e-02 2.49993289e-03
      2.53956039e-02 3.25869732e-02 -5.40819950e-02 -1.44012243e-01
      -6.66344911e-02 1.92140117e-02 9.07022040e-03 -2.43977970e-03
      1.31237123e-03 2.69545224e-02 5.51257581e-02 -3.66884582e-02
      -1.09205902e-01 -5.07181697e-02 2.15116013e-02 2.03720257e-02
      -3.48400734e-02 -4.76308540e-02 -7.71489646e-03 9.34027880e-03
      3.98700237e-02 -5.08193672e-02 -3.41500379e-02 -2.00673807e-02
      -1.83240715e-02 -4.47547808e-02 -4.17140760e-02 5.36376471e-03
      -1.68508422e-02 -4.57971953e-02 -7.66915828e-02 -2.13261526e-02
      1.04608014e-02 1.60492659e-02 6.83397381e-03 4.70084138e-03
      3.21498476e-02 4.99359779e-02 6.46120310e-02 -1.97138544e-02
      -2.12194156e-02 6.39837757e-02 7.12199286e-02 -1.04340930e-02
      -4.43256646e-02 1.13710389e-02 6.56662509e-02 4.16248702e-02
      -4.56297807e-02 -5.02030030e-02 -2.48246803e-03 -5.61522739e-03
      -3.50264087e-02 -5.75302802e-02 4.05977806e-03 2.45181676e-02
      -6.85835490e-03 6.69992238e-04 8.18084052e-04 1.39703006e-02
      1.94709748e-02 6.55074837e-03 1.19813420e-02 3.87946405e-02
      4.94837128e-02 9.43280309e-02 5.11809848e-02 5.54062705e-03
      3.42440754e-02 6.36717826e-02 6.12241104e-02 6.99438667e-03
      2.03500036e-02 7.11356550e-02 4.56352904e-02 8.21735058e-03
      -7.47172907e-02 -2.47904509e-02 -6.06509903e-03 1.09741557e-02
      -1.28857940e-02 -8.65473485e-05 1.53177055e-02 3.68664972e-02
      -3.08992360e-02 1.24485220e-03 1.76442247e-02 1.93994287e-02
      -3.90963769e-03 -1.58789698e-02 7.42543535e-03 1.58746187e-02
      -8.24657676e-04 -1.66917816e-02 -8.66269916e-02 -3.25048901e-02
      -2.01637167e-02 -4.83944863e-02 -2.62831505e-02 6.76738769e-02
      -1.75358392e-02 -1.45115582e-02 -7.20846839e-03 2.21481472e-02
      -3.82432006e-02 -6.85387999e-02 -3.40100788e-02 -1.34897185e-02
      1.45742651e-02 -1.53641766e-02 7.61320665e-02 -1.27794649e-02
      1.10422885e-02 3.74914669e-02 3.03251073e-02 -2.49406928e-03
      -3.81093025e-02 1.33653032e-02 6.22938797e-02 7.30216801e-02
      3.15007903e-02 -7.30292499e-02 -5.85680977e-02 -1.07532553e-02
      -1.78970005e-02 -9.78706963e-03 8.41236860e-02 4.09630165e-02
      1.74955800e-02 1.37331173e-01 2.49440540e-02 -5.50728291e-02
      -9.20351967e-02 -3.86680290e-02 1.67524931e-03 6.44081756e-02
      7.50153325e-03 5.43701164e-02 2.03648452e-02 -1.45223793e-02
      9.14011616e-03 1.95209403e-02 2.04452891e-02 -1.16971936e-02
      -7.09355948e-03 4.81901988e-02 1.09500647e-01 7.41203725e-02
      -3.79359461e-02 -8.15574005e-02 -7.60684116e-03 3.28602307e-02
      4.86855581e-02 4.98180091e-02 5.60840033e-03 1.74743999e-02
      9.19868052e-02 1.30731594e-02 -7.07825571e-02 -8.46193507e-02
      -1.97642613e-02 2.20865160e-02 2.19551008e-02 -3.12027335e-02
      3.12604196e-03 1.46871470e-02 1.13426931e-02 -7.16178352e-03
      -2.02848595e-02 -1.52776632e-02 -2.78663300e-02 1.60518326e-02
      -2.29286905e-02 -5.12351580e-02 -6.25832379e-02 8.45678523e-03
      -4.34279181e-02 -9.59440880e-03 -8.47949460e-03 -6.29751161e-02
      5.50769502e-03 -9.24641937e-02 -7.75141791e-02 -3.79509404e-02
      -2.74625677e-03 -1.07786814e-02 -8.22477101e-04 -9.68583673e-03
      -1.23037724e-03 1.76999234e-02 -3.44256349e-02 -3.54346596e-02
      1.14315506e-02 1.08739203e-02 2.91807344e-03 -1.47965802e-02
      -1.83931775e-02 -3.42163071e-02 1.84538029e-02 -4.32065874e-02
      -4.19041365e-02 1.49154253e-02 4.69870307e-02 2.73582302e-02
      -3.50579731e-02 -3.49152163e-02 -8.23235139e-02 -1.93198975e-02
      -9.11250710e-02 -6.32969514e-02 -1.14738848e-02 6.51729992e-03
      7.72892125e-03 -1.71682891e-02 -4.01688321e-03 -9.11665894e-03
      3.53136808e-02 -6.66279718e-03 3.95205170e-02 1.32576767e-02
      1.01547502e-03 1.45013630e-02 6.40298938e-03 -2.61279233e-02
      -3.74773727e-03 9.36195105e-02 1.64816588e-01 1.77750289e-01
      7.86052942e-02 3.70890903e-03 5.36405295e-02 9.12809223e-02
      -2.46898253e-02 -6.42962381e-02 -2.63107400e-02 8.57414827e-02
      7.75599554e-02 2.58298609e-02 3.29414196e-03 8.88163131e-03
      9.15474165e-03 1.51327602e-03 -1.88505519e-02 -9.01009049e-03
      3.39486562e-02 -6.76510334e-02 -5.37943803e-02 -2.94063333e-03
      -1.68321505e-02 -1.16844277e-03 -2.61574588e-03 -3.05440160e-03
      -1.26836654e-02 -9.01314318e-02 -1.10809065e-01 -1.12596750e-01
      -3.20384838e-02 -7.73316808e-03 3.46676260e-03 -1.88131239e-02
      1.79620199e-02 -4.80833650e-03 -5.95566519e-02 -3.87359150e-02
      -6.95330128e-02 -1.91150121e-02 3.96010000e-03 4.02393378e-03
      -2.54951301e-03 -1.35812983e-02 1.77766867e-02 2.33670715e-02
      -5.36399409e-02 -2.45574787e-02 1.51330661e-02 9.92758479e-03
      -1.84069443e-02 -1.59495231e-02 -7.33634131e-03 1.00921728e-02
      -3.51741053e-02 -4.72981445e-02 -6.30953014e-02 1.99740771e-02
      2.55394969e-02 7.56005524e-03 6.21313741e-03 -1.25339124e-02
      3.93719263e-02 8.69557168e-03 1.30516023e-03 -2.01842040e-02
      -7.69350072e-03 1.25757139e-02 2.52094455e-02 1.13438126e-02
      -6.09691080e-04 1.74054410e-02 2.90478356e-02 9.89959016e-02
      2.29645334e-02 3.29964841e-03 1.26593681e-02 4.25473973e-02
      1.62024936e-03 -2.33997088e-02 7.65501289e-04 3.76530103e-02
      1.31231979e-01 4.50763442e-02 1.64290145e-03 2.75837891e-02
      6.43362384e-03 -7.32330885e-03 -4.28236835e-02 9.66783017e-02
      1.93624333e-01 1.11205049e-01 7.69209210e-03 -1.98220722e-02
      7.90266320e-04 -1.86622143e-02 -6.18390460e-03 -8.37915950e-03
      4.26222123e-02 1.30326182e-01 -5.89023083e-02 -6.04770742e-02
      -2.11064722e-02 -1.63256167e-03 -1.20395015e-03 -4.83251736e-03
      -5.41991275e-03 7.44820386e-03 -2.73199775e-03 4.43253592e-02
      -4.60726433e-02 -4.11643498e-02 1.98297016e-02 1.81639250e-02
      -4.13964391e-02 -7.14271516e-02 -1.51707148e-02 3.69440876e-02
      3.17629836e-02 -2.76334882e-02 -6.22959621e-02 -3.00689787e-02
      -2.85774693e-02 -4.36500944e-02 -5.91436513e-02 -2.14927308e-02
      1.95881538e-02 -7.71949533e-03 -1.82925723e-02 -4.94622253e-03
      6.94049383e-03 5.60719939e-03 -5.46904281e-03 -4.81596962e-03
      4.67370898e-02 3.37200537e-02 5.51525764e-02 4.58172373e-02
      -6.54921820e-03 4.25478024e-03 1.09193586e-02 2.33706739e-02
      -3.14655192e-02 5.31053776e-03 4.73263375e-02 3.01419832e-02
      4.13576327e-03 -9.88208801e-02 -7.41558820e-02 -4.25641090e-02
      -9.03949235e-03 -3.75748686e-02 -2.45089699e-02 -7.25362683e-03
      6.28632233e-02 1.96621288e-02 -9.79272742e-03 9.89341061e-04
      -3.53845097e-02 -1.12319626e-02 -2.43315268e-02 1.78197660e-02
      9.77971256e-02 4.94629256e-02 2.63022948e-02 -3.29941474e-02
      -5.96950129e-02 -5.81677966e-02 -3.46391089e-02 -5.84190376e-02
      -2.72339508e-02 5.78612015e-02 7.08225071e-02 4.08338606e-02
      -4.72179726e-02 -7.28032440e-02 -1.90353524e-02 -2.43721772e-02
      -3.68954539e-02 -2.31880900e-02 4.74103764e-02 6.82279319e-02
      -2.49217618e-02 -1.15829958e-02 1.07540432e-02 2.79615005e-03
      -1.60951223e-02 -4.55911197e-02 2.21857172e-03 5.59594147e-02
      8.59523043e-02 5.89314811e-02 -9.72019210e-02 -8.51055309e-02
      -6.08321019e-02 -4.52368744e-02 -4.88094985e-02 4.92137522e-02
      6.06062338e-02 -1.17080240e-02 9.99483466e-02 -1.81461256e-02
      -5.64093590e-02 -8.73691440e-02 -3.75543423e-02 -7.29826838e-03
      3.25969309e-02 -2.69386768e-02 5.82964309e-02 9.62833222e-03
      -3.40740904e-02 -8.89707636e-03 9.92348767e-04 3.67879239e-03
      -1.95211042e-02 -1.91415753e-02 3.25276107e-02 9.69682336e-02
      7.49726817e-02 -8.11644420e-02 -1.05266191e-01 -5.02288416e-02
      -5.03514847e-03 2.29241848e-02 1.06581897e-02 -1.84421111e-02
      1.60896741e-02 1.00763120e-01 -1.09940385e-02 -9.90304500e-02
      -1.08827464e-01 -4.03818525e-02 1.37130497e-02 1.32929804e-02
      -4.11145948e-02 7.03110471e-02 -5.72069967e-03 -7.12645054e-03
      -2.25255024e-02 9.53397434e-03 -8.41218326e-03 -1.71044841e-02
      2.14370135e-02 3.90150324e-02 1.55148879e-01 1.09692872e-01
      -2.39498597e-02 -9.71655995e-02 -2.46348828e-02 -5.07349931e-02
      -7.59063140e-02 2.48016766e-03 4.46764641e-02 1.63758680e-01
      1.73477814e-01 -4.19086590e-02 -6.55456781e-02 -6.98508099e-02
      -3.06839421e-02 -1.00844745e-02 -1.65326353e-02 3.95831168e-02</_>
    <_>
      -4.70774211e-02 1.11762490e-02 7.24255815e-02 2.00873856e-02
      5.16065881e-02 2.10286248e-02 -1.47495407e-03 4.71553486e-03
      -3.13515216e-02 -5.33472337e-02 -6.59313574e-02 3.20205614e-02
      6.08733669e-02 6.34350479e-02 5.60804158e-02 5.89736290e-02
      1.25206217e-01 -1.13434032e-01 -2.92636808e-02 2.86176819e-02
      -7.75781646e-03 -1.93624273e-02 -4.95512388e-04 1.79948509e-02
      4.28726617e-03 8.24821144e-02 -3.87534536e-02 -2.06325259e-02
      1.27848759e-02 8.64060930e-05 -2.18299199e-02 -1.92124974e-02
      1.88774876e-02 1.29924426e-02 3.32564302e-02 -2.11338662e-02
      -2.73082014e-02 5.03393523e-02 -3.21925282e-02 -2.64131278e-02
      -1.21671036e-01 7.73642138e-02 6.68021441e-02 5.09868823e-02
      -6.11013733e-02 4.69391532e-02 8.81214067e-02 2.22088918e-02
      -4.89455573e-02 -5.72455600e-02 7.33636245e-02 4.60221916e-02
      3.21115181e-02 -6.27203984e-03 -3.99137810e-02 -3.31659913e-02
      -7.98014998e-02 -3.50483358e-02 -2.44706217e-02 2.35403907e-02
      3.38272341e-02 3.18130851e-02 -1.42554129e-02 -8.20223615e-02
      -4.29235995e-02 -8.83750990e-02 -1.06557339e-01 -9.32746530e-02
      2.73765419e-02 2.73559839e-02 -4.58928831e-02 -4.96329926e-03
      3.60855125e-02 8.18773210e-02 -1.97638310e-02 -4.10012677e-02
      -2.98376679e-02 4.37894054e-02 1.70279089e-02 1.16226226e-02
      -4.19700965e-02 -9.46270749e-02 5.41164726e-03 -1.95017047e-02
      -1.91591978e-02 -2.42509227e-02 4.50282311e-03 -1.83347857e-03
      5.15928157e-02 -1.21311158e-01 -5.74426027e-03 -1.56185189e-02
      -6.87007308e-02 -9.90170911e-02 -1.08387925e-01 -7.29996525e-03
      2.06278376e-02 9.12599638e-02 -2.91463509e-02 7.38573968e-02
      2.16447618e-02 1.30582079e-02 2.31375508e-02 2.02557836e-02
      -1.86424970e-03 4.15803725e-03 5.03584966e-02 1.30866379e-01
      -5.25261089e-02 1.11044561e-02 -1.73913240e-02 -4.42750566e-02
      -6.76260516e-02 4.64156307e-02 2.54115239e-02 4.97814734e-03
      -6.97813481e-02 -2.84671929e-04 3.34196053e-02 5.91006540e-02
      -5.37403300e-02 -3.65306251e-02 1.32009208e-01 9.72689316e-02
      -4.79569612e-03 4.69850712e-02 9.43728462e-02 6.73648668e-03
      3.66748273e-02 2.43218131e-02 3.63677740e-02 -1.84772033e-02
      2.60417461e-02 6.93375841e-02 7.62752220e-02 -1.20031452e-02
      3.26637477e-02 -4.07519974e-02 -5.43467738e-02 -5.40875308e-02
      1.68120470e-02 -1.70863438e-02 -1.93195157e-02 -6.31843209e-02
      -8.78147185e-02 7.67837919e-04 -1.38328761e-01 -1.50416508e-01
      -7.59153962e-02 -1.59453508e-02 3.53960507e-02 -7.26814196e-03
      -2.36850902e-02 4.80165705e-02 1.73511468e-02 -1.63718648e-02
      -1.01265721e-02 -1.26829592e-03 -5.13513833e-02 -1.55896246e-02
      8.58850591e-03 2.04265416e-02 5.57931252e-02 6.48553658e-04
      1.52715137e-02 -1.83546897e-02 -4.87523675e-02 -2.26307120e-02
      -5.59150102e-03 1.53594734e-02 6.40770569e-02 5.40020876e-02
      -4.07286398e-02 -5.70397973e-02 9.88021307e-03 -1.37068620e-02
      -1.47375707e-02 -3.05032544e-02 1.02328949e-01 1.10900037e-01
      7.53465295e-02 -4.64490652e-02 -1.04456700e-01 -7.68176392e-02
      -7.70657137e-02 -2.17073020e-02 2.86815111e-02 1.10002182e-01
      1.19722016e-01 4.49384414e-02 -1.39892446e-02 2.73401085e-02
      -2.84837913e-02 -2.40578540e-02 1.78089403e-02 4.70074825e-02
      3.23808342e-02 3.77611369e-02 5.85483983e-02 2.77171889e-03
      -8.03805217e-02 -1.15278885e-01 -6.18740506e-02 -7.34318793e-02
      1.56321805e-02 1.65876392e-02 8.83672163e-02 -4.02834639e-03
      -4.16169427e-02 -1.09508187e-01 -1.35164440e-01 -1.54736310e-01
      -8.23573172e-02 -3.97205763e-02 -7.57643068e-03 -3.26319993e-03
      -4.15920373e-03 -2.08074301e-02 -3.44742313e-02 -5.34975827e-02
      -5.09525016e-02 -3.12690251e-02 -3.83137981e-03 -2.99906544e-03
      1.72137562e-02 -3.23360041e-02 2.52993423e-02 -7.63527676e-02
      -1.61199197e-01 -4.88452725e-02 -1.56117514e-01 -4.45795767e-02
      3.33749540e-02 -4.06638794e-02 1.67460740e-02 1.29294917e-02
      -3.49879079e-02 -9.59825739e-02 -1.15132049e-01 -7.48329982e-02
      -4.88532558e-02 1.44480709e-02 -4.49924879e-02 8.57546702e-02
      8.74426961e-03 -3.79958190e-02 -8.81587528e-03 2.88805366e-02
      1.94145031e-02 1.60236675e-02 7.72296414e-02 1.17367484e-01
      -3.24699208e-02 5.93404425e-03 -1.21857658e-01 -1.14963681e-01
      -8.10005665e-02 -4.56240930e-04 1.06560960e-01 1.09143712e-01
      7.70879686e-02 -3.25672813e-02 -5.14047258e-02 -1.31441876e-02
      -2.03186385e-02 -8.88679735e-03 1.92157310e-02 5.40103577e-02
      -3.10072079e-02 -2.90593356e-02 6.18093759e-02 4.20811307e-03
      -4.46911156e-02 -4.17944789e-02 -4.55443468e-03 -6.68863207e-03
      1.51034696e-02 7.40955845e-02 7.31420368e-02 2.44292524e-02
      3.47330086e-02 -2.27538105e-02 -1.04122572e-01 -1.61247313e-01
      -1.07718399e-02 3.28831747e-02 3.94904763e-02 4.93401773e-02
      -6.26785085e-02 2.17361434e-04 -1.49327451e-02 -5.02362512e-02
      -6.85743988e-02 1.30431959e-02 4.09926474e-02 2.74995789e-02
      -9.05270651e-02 5.81878275e-02 3.71213891e-02 5.95893769e-04
      -1.88472085e-02 -1.11133093e-02 -2.84655970e-02 2.27062497e-02
      5.52017242e-02 3.54780257e-02 5.19143697e-03 7.32784644e-02
      5.40798083e-02 -8.83827060e-02 -1.94093794e-01 -8.19265693e-02
      -5.11836857e-02 -7.25608841e-02 -2.68004332e-02 1.18370624e-02
      -9.57722403e-03 -1.12166759e-02 -2.31602248e-02 -5.81550077e-02
      -1.53130405e-02 -3.77471037e-02 5.29496260e-02 -3.21259126e-02
      6.00893237e-03 4.07241955e-02 1.41822658e-02 -2.72565857e-02
      -2.14927103e-02 1.05654402e-02 1.19458707e-02 2.53037103e-02
      -8.40159226e-03 -3.02800443e-02 4.23814766e-02 -6.40678182e-02
      -7.26977661e-02 -1.16730876e-01 8.30818191e-02 6.47386014e-02
      4.16622721e-02 -7.98817128e-02 3.46708596e-02 7.46251345e-02
      2.58146096e-02 -3.84910218e-02 -5.01217879e-02 6.42526448e-02
      4.19178121e-02 1.65967736e-02 -2.43669413e-02 -2.23080721e-02
      1.24075660e-03 -6.55053481e-02 -4.50087562e-02 -2.45110616e-02
      2.07392275e-02 4.07172889e-02 3.89828682e-02 1.52869057e-03
      -6.07685298e-02 -7.93935955e-02 -9.80809629e-02 -1.06401093e-01
      -9.11462903e-02 3.09680728e-03 3.90231311e-02 -5.54971807e-02
      -3.24372575e-03 3.29212472e-02 5.91396354e-02 -1.21822944e-02
      -3.16731259e-02 -2.25280337e-02 5.73658496e-02 2.93545946e-02
      2.24405583e-02 -3.39110903e-02 -9.28277790e-04 -6.38499670e-03
      -5.34571223e-02 -2.19339523e-02 1.58521440e-02 -1.72756072e-02
      -8.22134491e-04 5.86922094e-03 8.17837717e-04 -3.43798054e-03
      6.19444549e-02 -1.13185104e-02 -7.09122792e-02 -2.75791977e-02
      -4.75456491e-02 -3.84333469e-02 3.98951620e-02 8.60478207e-02
      5.43035120e-02 -1.71527527e-02 -2.57185176e-02 -1.35744130e-02
      -8.65426380e-03 7.07179448e-03 1.33417407e-02 2.35290825e-02
      8.08435380e-02 -1.62552372e-02 3.96716222e-02 -9.35983285e-03
      -3.12779509e-02 -5.53851314e-02 4.78397980e-02 2.09725313e-02
      9.51507129e-04 -5.59031591e-02 2.86873803e-02 4.46099676e-02
      3.82934771e-02 -4.01768200e-02 -2.04781014e-02 1.18994325e-01
      9.02751684e-02 1.02879875e-03 2.24973839e-02 7.76580721e-02
      5.36947465e-03 1.46460561e-02 2.12437641e-02 3.81719172e-02
      -1.26427514e-02 2.98906304e-02 7.26887137e-02 8.31852779e-02
      1.48860971e-02 3.06139607e-02 -3.83801013e-02 -3.84459943e-02
      -4.13893834e-02 2.50567906e-02 -2.67181154e-02 -1.97290760e-02
      -7.64378682e-02 -3.49709727e-02 -2.16539167e-02 -1.41635135e-01
      -1.21475585e-01 -6.04147278e-02 -2.47305911e-02 2.11323481e-02
      1.38848331e-02 3.99383530e-03 8.49919394e-02 3.18698995e-02
      -3.47023308e-02 1.08971829e-02 6.03053952e-03 -5.33950813e-02
      -8.82954057e-03 3.70378904e-02 5.42524904e-02 3.19443531e-02
      -2.89548356e-02 -3.95308957e-02 -1.59355514e-02 -7.32730888e-03
      -5.39945625e-03 -3.88367102e-02 -3.98068093e-02 -7.56855588e-03
      -1.00144029e-01 -1.03907168e-01 -1.06607586e-01 -5.87379634e-02
      -6.88021258e-02 -6.70954064e-02 -6.97527006e-02 3.88224423e-02
      -1.24576017e-02 -1.82947796e-02 -2.34217532e-02 -8.37653279e-02
      -2.20817365e-02 -5.09635247e-02 -1.05266407e-01 -7.61218444e-02
      2.36850679e-02 -1.53087182e-02 6.32468611e-02 1.89201757e-02
      3.53012122e-02 -6.49349904e-03 1.40802911e-03 2.51612160e-02
      4.72083427e-02 2.62801182e-02 4.86601070e-02 1.02387831e-01
      4.83181998e-02 -6.92886263e-02 -8.46518725e-02 2.48164311e-02
      -3.73558402e-02 6.52760640e-02 8.54345188e-02 1.15336828e-01
      4.63603064e-03 -6.46516390e-04 -4.51032408e-02 -6.30114228e-02
      -6.52882755e-02 -2.72229500e-02 -8.17896146e-03 2.77179517e-02
      -3.09103495e-03 4.24454361e-02 1.85537525e-02 1.06265759e-02
      -1.24430675e-02 -1.52026406e-02 -2.35615876e-02 7.63655594e-03
      3.06273494e-02 3.84376869e-02 2.50792485e-02 5.59876040e-02
      -6.41112551e-02 -1.06207997e-01 -3.16007948e-03 -1.30149320e-01
      -1.34538934e-02 1.00549169e-01 8.62247497e-03 2.56880373e-02
      3.23247388e-02 -1.09728407e-02 -6.61186874e-02 -7.27765262e-02
      -3.98975499e-02 -4.31503840e-02 4.85075116e-02 -3.28403078e-02
      -3.88308265e-03 -3.12279128e-02 -5.90589941e-02 -4.29532789e-02
      -5.75216562e-02 -8.96011665e-02 -6.04549572e-02 6.67802012e-03
      -9.32185818e-03 5.18752867e-03 9.06577706e-03 -1.14558496e-01
      -5.42542338e-02 -9.91450474e-02 -1.17570564e-01 -6.92023784e-02
      -6.43988699e-02 -8.99681225e-02 1.34233460e-02 3.59777100e-02
      -2.01011710e-02 -7.62134641e-02 -7.32527226e-02 -3.31905112e-02
      -2.27535497e-02 3.91897298e-02 -8.71711373e-02 4.72583994e-02
      3.33711952e-02 -2.45996602e-02 -3.06047630e-02 -7.87098310e-04
      -9.24211647e-03 4.35037771e-03 5.37036695e-02 4.32180092e-02
      -2.60742735e-02 6.31412640e-02 3.13670449e-02 -8.91893655e-02
      -1.50828779e-01 -1.75384950e-04 1.52380560e-02 6.07574126e-03
      5.84635464e-03 -4.81429324e-02 8.29897728e-03 -7.53450068e-03
      -3.01952716e-02 -4.10556272e-02 2.71110013e-02 2.91460417e-02
      1.72117744e-02 -7.93522671e-02 7.49679580e-02 5.22331670e-02
      1.37825636e-03 -1.62316486e-02 4.59840521e-03 -1.96090788e-02
      1.11658536e-02 6.08874932e-02 -2.13660038e-04 -1.69374458e-02
      1.04639053e-01 7.00472295e-02 -7.29077384e-02 -1.66558132e-01
      -8.63587484e-02 -2.38295589e-02 -7.15442225e-02 -1.78532340e-02
      2.77730022e-02 -5.48174931e-03 -2.15816009e-03 -1.28765255e-02
      -4.15885150e-02 1.97222829e-02 -4.48787548e-02 4.02520224e-02
      -1.68132335e-02 6.71666190e-02 4.57073152e-02 -2.09737755e-02
      -2.12653819e-02 -2.27421019e-02 -4.29778174e-03 -2.25425977e-03
      5.77078797e-02 -4.30156849e-02 4.53795716e-02 5.43914810e-02
      3.74404788e-02 -1.04291618e-01 -1.61034361e-01 -7.32544884e-02
      -4.35953029e-03 9.03659463e-02 -3.71562988e-02 2.19964106e-02
      1.56725999e-02 -1.19169364e-02 -2.41913404e-02 -3.54832895e-02
      4.07278491e-03 -4.82229516e-03 8.07009265e-02 1.44516919e-02
      -3.44067067e-03 -2.24666577e-03 -4.80260141e-02 -2.81187985e-02
      -1.58833079e-02 1.97355412e-02 3.19122672e-02 2.44281683e-02
      4.51028580e-03 -2.24308111e-02 -5.21376394e-02 -5.62000088e-02
      -5.45649230e-02 -6.67183623e-02 9.50361043e-03 3.03441565e-02
      -5.19199036e-02 2.68973596e-02 3.78274992e-02 3.15551311e-02
      -1.18708890e-02 3.24513321e-03 -3.44448327e-03 3.74180675e-02
      2.47812644e-02 1.26361484e-02 -5.75529877e-03 1.47499595e-04
      -5.89590147e-03 -3.82381491e-02 -8.66947230e-03 3.40199880e-02
      -2.57534031e-02 -3.33514549e-02 -7.75498943e-03 -2.38718390e-02
      2.29607895e-02 5.29419407e-02 -1.53287863e-02 -6.35607764e-02
      -1.32185174e-02 -7.97917619e-02 -5.29160537e-02 1.42817665e-03
      7.64634386e-02 3.08386795e-02 -1.67592689e-02 -2.77797878e-02
      -1.08306324e-02 -1.32723637e-02 -4.34210291e-03 1.95130296e-02
      9.55012999e-03 9.27468110e-03 3.40547673e-02 2.41344385e-02
      5.86829789e-04 1.55583965e-02 2.96012945e-02 -2.99370587e-02
      -4.24002521e-02 -4.16127369e-02 -4.71172342e-03 9.16858092e-02
      1.01281986e-01 2.78209373e-02 3.78181562e-02 6.62773848e-02
      -1.93602908e-02 -9.21602473e-02 -1.03969306e-01 1.73916444e-02
      -4.42418940e-02 -6.06216490e-02 -7.80544654e-02 -3.63969104e-03
      -1.87932118e-03 -1.02648297e-02 -1.06117977e-02 -1.34148486e-02
      -3.87825035e-02 7.16120675e-02 4.69513498e-02 -1.54311734e-03
      -1.76993094e-03 -5.07118460e-03 3.62221673e-02 1.44012552e-02
      2.04601046e-03 -4.66197841e-02 5.68100549e-02 6.40432090e-02
      -7.24207461e-02 -5.21640368e-02 -7.18075549e-03 1.31895142e-02
      9.59464759e-02 9.63069052e-02 5.46952374e-02 1.17015623e-01
      5.06972522e-02 8.62439256e-03 3.12900655e-02 8.64443462e-03
      -2.41619367e-02 9.93915927e-03 6.10830821e-02 9.35330316e-02
      5.26153818e-02 1.77353565e-02 3.74541013e-03 1.07607543e-02
      7.73873134e-03 7.33767264e-03 1.42646916e-02 -4.72882343e-03
      1.41678527e-02 -6.08601198e-02 -5.52477092e-02 -1.60054974e-02
      1.93546172e-02 -3.20953242e-02 -2.47299355e-02 6.46782061e-03
      8.45909715e-02 -1.19641925e-04 3.04651838e-02 5.50126471e-03
      -4.42966297e-02 -2.38589288e-04 -3.83115783e-02 -8.10699388e-02
      -4.07726951e-02 6.87585920e-02 1.12544606e-02 -1.37907662e-03
      -2.75981845e-03 -1.81173887e-02 2.05028653e-02 4.47393535e-03
      -7.82521721e-03 -2.26443764e-02 -3.38352136e-02 -1.21960593e-02
      -3.40728834e-02 -1.95677429e-01 -1.21531971e-01 -4.35973629e-02
      -5.48948906e-02 -5.82761727e-02 -8.04390758e-02 -4.41424809e-02
      6.75235223e-03 3.24292146e-02 -5.96349314e-02 -3.99678238e-02
      1.31522771e-03 -2.91219037e-02 -6.34657592e-02 -7.12234825e-02
      -4.01193239e-02 1.00168856e-02 8.22226033e-02 6.37898222e-02
      4.20092158e-02 1.63536500e-02 -4.26847255e-03 -1.39182573e-02
      1.82934348e-02 4.93751727e-02 7.75968209e-02 9.00116190e-02
      9.16286483e-02 -1.83622949e-02 2.03192630e-03 4.92805839e-02
      -3.72127518e-02 3.82174812e-02 1.26024216e-01 5.69978617e-02
      5.00484221e-02 5.26566915e-02 1.80217009e-02 -1.60392039e-02
      -2.32214257e-02 -6.57122629e-03 -1.61165390e-02 7.32462853e-02
      1.43813773e-03 -2.20188983e-02 -2.63358336e-02 -3.39228995e-02
      -1.98922604e-02 -5.27923554e-02 -8.78709927e-02 -5.28884083e-02
      4.02619950e-02 -2.49672085e-02 2.59847473e-02 2.24585906e-02
      -6.56165928e-02 -1.70451496e-02 -6.85403943e-02 -7.20218867e-02
      -3.37906778e-02 -1.36169754e-02 -1.26670236e-02 2.33296622e-02
      5.85685037e-02 -7.56459543e-03 -3.78219336e-02 -3.87241021e-02
      -8.42273177e-04 1.37138497e-02 9.10193324e-02 -8.01268592e-02
      -7.48629775e-03 -7.65129104e-02 -5.54212593e-02 -3.01283505e-02
      -4.27814014e-02 -6.68300688e-02 -9.64461640e-02 -7.37118274e-02
      -2.45422795e-02 3.97010660e-03 -4.92321551e-02 -1.50176026e-02
      -3.92166264e-02 -7.61141777e-02 -6.57288656e-02 -5.89906871e-02
      2.23745331e-02 -1.98299047e-02 2.06990745e-02 2.65948940e-02
      -3.12357899e-02 -2.80309729e-02 -7.12089613e-02 1.22787515e-02
      6.69421926e-02 1.18440725e-01 -4.47230339e-02 6.07638918e-02
      4.38697413e-02 -8.16180930e-03 -5.95960254e-03 3.89672187e-03
      -1.46649480e-02 -4.47813049e-03 3.41772176e-02 -8.06944538e-03
      2.54764520e-02 9.70200598e-02 5.33129573e-02 -7.10486770e-02
      -1.67448923e-01 -9.52764153e-02 -6.37132898e-02 -2.29912288e-02
      3.15965619e-04 3.27558257e-02 2.15345039e-03 -3.91090615e-03
      -2.32480392e-02 -4.61253002e-02 -3.73715116e-03 -3.49971168e-02
      4.37480956e-02 -4.52064676e-03 5.34377806e-02 3.79313789e-02
      -3.50604318e-02 -2.18474753e-02 -2.79381890e-02 1.00626587e-03
      -2.98793311e-04 7.27215931e-02 -5.40710725e-02 5.75730652e-02
      4.14753258e-02 1.20286271e-02 -1.44071206e-01 -2.07086161e-01
      -7.51958489e-02 -4.65853885e-03 9.87536460e-02 -3.46739329e-02
      3.31207775e-02 -4.56834864e-03 -1.33902887e-02 -2.77411900e-02
      -5.97734824e-02 -2.76693460e-02 -5.21191023e-03 9.32891518e-02
      3.59693542e-02 1.11299083e-02 9.58387554e-03 -4.51763831e-02
      -2.47775633e-02 -3.67194377e-02 3.95141216e-03 5.21398261e-02
      9.54074636e-02 -2.27984879e-02 4.51715440e-02 1.33708110e-02
      9.16965120e-03 -9.81624275e-02 -1.91419289e-01 -8.26247111e-02
      3.58952098e-02 9.22974125e-02 3.24280113e-02 1.29051683e-02
      2.65681942e-04 2.62678135e-02 1.10001685e-02 -6.03116443e-03
      -3.15425172e-02 -1.46426857e-02 4.99740951e-02 5.36233671e-02
      -1.17049478e-02 -2.30458169e-03 7.10529974e-03 1.35370260e-02
      3.34337093e-02 -2.19977591e-02 -2.64647640e-02 -9.10718367e-03
      -2.38697920e-02 5.72023168e-02 3.69955078e-02 2.06166077e-02
      4.22898622e-04 2.24197917e-02 -5.76125681e-02 -4.83732447e-02
      -4.77510169e-02 5.33634499e-02 4.84159291e-02 3.80494026e-03
      -1.21469693e-02 9.70030436e-04 -1.70560051e-02 -1.60120018e-02
      1.27521902e-02 -6.09528227e-03 9.02335625e-03 3.49693671e-02
      4.81782518e-02 3.27659622e-02 3.36296745e-02 4.51761261e-02
      -8.24977364e-03 -1.07988967e-02 -4.44237664e-02 -1.47372186e-02
      5.29852509e-02 9.10449848e-02 9.23513770e-02 8.95586088e-02
      1.05056763e-01 1.95846520e-02 -5.06200306e-02 -1.12903208e-01
      7.70542538e-03 -4.82668616e-02 -8.54048803e-02 -6.57145604e-02
      6.76476676e-03 -4.31525148e-03 -8.81571043e-03 -2.09496487e-02
      -3.22586372e-02 -5.08599617e-02 4.49091457e-02 1.46884052e-02
      1.22576137e-03 2.91791335e-02 1.62983593e-02 -1.50288944e-03
      -5.42990630e-03 -1.65129453e-02 -2.12425627e-02 4.14419025e-02
      -2.54526809e-02 4.10525650e-02 8.87700766e-02 3.77576575e-02
      2.09408384e-02 4.08248790e-02 -7.73945674e-02 -6.41075969e-02
      -3.35384570e-02 -8.21954235e-02 -3.20890173e-02 2.62733530e-02
      -1.12220217e-02 1.80242434e-02 -3.60188708e-02 -3.77704650e-02
      1.20588737e-02 8.26147422e-02 5.08647785e-02 3.88609357e-02
      2.35150587e-02 9.34334565e-03 -1.05189614e-03 1.59391239e-02
      -3.14335455e-03 1.68841500e-02 -3.52066010e-03 -4.87358682e-02
      2.30038576e-02 1.14213126e-02 -1.95541233e-03 -1.55548919e-02
      2.75862366e-02 1.06524169e-01 -5.03854128e-03 4.65376955e-03
      -5.96574787e-03 -2.40109302e-02 6.38932269e-03 -2.52098441e-02
      -4.99149784e-02 -1.00921588e-02 7.08869621e-02 3.16968118e-03
      4.47240705e-03 -1.96623290e-03 4.17641830e-03 4.55852076e-02
      2.63906736e-02 6.76883943e-03 -1.09986262e-02 -3.77856493e-02
      -1.67398080e-02 -5.51423291e-03 -1.81381807e-01 -8.37335214e-02
      1.71004850e-02 -3.20249423e-03 -1.47829857e-02 -5.67261316e-02
      -4.79930714e-02 3.20439488e-02 2.31563393e-02 -6.60287589e-02
      -6.11600652e-03 2.86031328e-02 -1.11964392e-02 -4.10892665e-02
      -4.98159714e-02 -1.21151330e-02 2.03748010e-02 -2.10880414e-02
      -6.75571784e-02 8.07291735e-03 4.42901291e-02 9.91963502e-03
      2.09437497e-02 -9.29381605e-03 -1.37818540e-02 1.20503614e-02
      1.98835041e-02 -7.90860429e-02 -3.72932032e-02 2.97787283e-02
      3.05770766e-02 4.17641550e-02 2.46714079e-03 1.07162572e-01
      6.72259480e-02 1.13433644e-01 -1.71643607e-02 1.02086002e-02
      3.29678133e-02 2.18738839e-02 -4.86421952e-04 -1.78344455e-02
      1.61122382e-02 1.18320614e-01 -9.80733708e-03 -3.43985520e-02
      -1.96511839e-02 -1.26070874e-02 -3.83914486e-02 -5.32113090e-02
      -2.36465614e-02 3.65786292e-02 -2.90516485e-02 3.74083146e-02
      3.96813378e-02 -7.73669407e-02 9.22408327e-03 -4.92131449e-02
      -3.86426970e-02 -2.51041856e-02 1.79773085e-02 -1.53261665e-02
      1.14830555e-02 3.30979787e-02 -2.93181231e-03 -1.66730285e-02
      -3.31354439e-02 -2.80403462e-03 1.03952494e-02 8.50153342e-02
      -4.31532972e-02 -2.48820912e-02 -9.63235050e-02 -3.30568962e-02
      -5.81357069e-03 -2.83407737e-02 -5.07108346e-02 -7.47653693e-02
      -4.66530100e-02 -4.13413495e-02 -2.32719202e-02 -6.16865493e-02
      -3.93848540e-03 -2.75884531e-02 -6.99943975e-02 -3.87639999e-02
      -6.20378368e-02 1.14558917e-02 -1.24442996e-02 1.26472451e-02
      4.03018892e-02 -2.38392483e-02 -3.18034030e-02 -6.12880774e-02
      2.29323134e-02 8.32727030e-02 1.37900651e-01 -4.39582653e-02
      8.92617106e-02 -3.38136479e-02 -2.10232865e-02 1.97963994e-02
      5.10065490e-03 -1.85544360e-02 -3.70385610e-02 -4.85210400e-03
      7.75704160e-02 2.21544355e-02 4.71701734e-02 -3.57622281e-02
      6.64446130e-02 2.38837674e-02 -3.30748893e-02 -7.91088268e-02
      -5.60018085e-02 2.41228230e-02 5.01127839e-02 3.16896252e-02
      -4.61076014e-02 -1.07537368e-02 1.19923707e-02 -4.72279126e-03
